// wte_weight_ref, numel=800
float wte_weight_ref[] = { 0.005548505, 0.001348033, -0.022221914, 0.004942370, 0.017277051, -0.016556578, -0.020524876, 0.005899117, -0.033559568, 0.003519596, 0.009572527, 0.001915765, -0.021779045, -0.011853053, -0.006211081, -0.006023951, -0.025136584, 0.038952775, -0.003573154, 0.007139833, 0.004738608, -0.004314492, -0.004092606, 0.013181382, -0.005210698, -0.000609776, 0.009730202, 0.020487387, 0.013728210, 0.029369539, 0.001914032, -0.013461975, 0.005715804, -0.010724206, -0.015462067, -0.003258174, 0.021789247, 0.011347716, 0.033888415, 0.044601582, 0.022194140, -0.010547285, 0.017655188, 0.005738997, -0.008411795, -0.004417014, -0.031540330, 0.006128744, -0.025632359, -0.000714932, -0.005860324, -0.006737684, -0.018258300, -0.005770039, -0.008882656, -0.001209309, -0.009606519, 0.033930793, -0.031996898, 0.009641659, 0.026138011, -0.016997123, -0.023412231, -0.019348459, 0.013040237, 0.015381083, -0.016137475, 0.005023327, 0.000811911, -0.011621089, 0.012922905, -0.027346475, -0.026417667, -0.003075653, 0.012309467, 0.032995358, 0.001700278, -0.032470811, 0.035618596, -0.007457159, -0.018744268, -0.010934386, -0.021401355, 0.007105741, 0.026094651, 0.030840436, 0.018679984, 0.002830190, 0.009831678, 0.002289228, -0.018349439, -0.012795215, 0.004882947, -0.011938923, -0.000078675, 0.018819952, 0.028575996, 0.004362814, 0.011232686, 0.021094922, -0.018066151, -0.016789556, -0.013863752, -0.005032169, -0.018849669, 0.027602941, 0.002984966, -0.012111141, -0.007280859, -0.040416040, -0.008943290, 0.019651137, 0.027719304, -0.027865345, -0.004067525, -0.032863464, 0.004426273, -0.028066652, 0.025253987, 0.007235230, -0.005991987, 0.014534657, 0.023682965, -0.004529508, -0.009453285, -0.003034167, 0.037458450, -0.021074967, -0.028728230, -0.009607370, -0.004859375, -0.024529789, 0.027064689, -0.021801177, -0.041370451, -0.008137030, 0.005962668, -0.006172196, 0.025628969, 0.005694926, 0.003051694, -0.000024421, -0.005525677, 0.004932350, -0.003067523, -0.004797145, -0.010086898, -0.053854439, 0.033295427, -0.042877734, -0.042361144, -0.036911279, -0.000086590, -0.031539481, 0.013369455, 0.002841040, 0.042473216, 0.017593110, -0.009347002, 0.020231411, -0.005236235, -0.010870793, -0.021767925, 0.007984437, 0.016751969, 0.010407818, -0.006146498, 0.025441706, 0.001996784, 0.024542745, -0.000590822, 0.014701124, -0.000113508, 0.013009518, -0.035365768, 0.011135810, 0.003181433, 0.001702389, 0.012951205, 0.006088766, 0.011965015, -0.008059444, 0.019044651, -0.006261733, -0.010634639, 0.002176414, 0.007071922, 0.004534349, 0.007335737, -0.018273596, -0.022423975, -0.015028886, -0.006661463, 0.015802292, -0.020776624, 0.019071907, -0.003575054, 0.025461171, 0.010663357, -0.015387395, 0.024169013, -0.041866191, 0.005218877, 0.029230896, 0.015179950, 0.007271606, -0.018805094, -0.041734345, 0.010061030, -0.007009414, -0.006711323, -0.005691395, -0.026436346, 0.000043739, -0.007858168, 0.005681479, 0.001981502, 0.012160706, -0.034416206, -0.039333597, 0.025624320, 0.036692329, -0.016792595, -0.050162420, -0.020706069, 0.004430698, 0.010606640, -0.009044974, 0.003976443, -0.003295025, 0.031790152, -0.001743638, -0.024393328, -0.024133392, 0.025858028, -0.001426336, -0.002287284, -0.007838068, -0.022169201, -0.021353588, -0.003189076, 0.005684959, 0.019019650, -0.001003201, -0.030365452, 0.020051396, 0.018660659, 0.055623345, 0.010456350, -0.004702725, 0.008822282, 0.008313923, -0.005161351, -0.034225147, 0.032414529, 0.009103401, 0.006417778, -0.018868487, 0.021057632, -0.031942595, 0.035531413, -0.051863048, -0.034033712, -0.001680273, 0.000021718, -0.019277534, 0.027306808, -0.038765814, -0.018540928, -0.028422076, 0.027134644, 0.003935141, -0.007835514, -0.035080727, 0.017978262, 0.020081561, 0.027102064, -0.021641461, -0.002776759, 0.012530996, -0.012397192, -0.025242431, 0.003708934, 0.037037723, -0.009239091, 0.008040198, 0.039811797, 0.014378239, 0.000640985, -0.005857329, 0.010985360, -0.029155714, -0.050345138, 0.043204110, -0.014872011, -0.001809237, -0.023478074, 0.008327882, 0.014138737, -0.029031919, 0.031388987, -0.008686342, -0.012338174, -0.006375370, -0.026773972, -0.014189667, -0.001493209, 0.007094264, -0.003555516, -0.001946755, 0.010184906, -0.023150682, -0.010056173, -0.025925014, 0.003686561, -0.021057457, -0.029136918, -0.012582432, 0.043796334, 0.010392548, 0.020121941, -0.020367021, -0.007781592, -0.017321739, -0.011731046, -0.012843358, 0.043075826, 0.029718794, -0.021512708, -0.010736492, -0.015120019, 0.011593240, 0.027828952, 0.007831724, 0.067214519, 0.006977731, 0.020315053, 0.026566837, -0.014630769, -0.056882333, -0.017664719, 0.010200269, 0.026368231, 0.018884437, -0.007969266, 0.025931597, 0.027306993, 0.019021131, 0.012070988, -0.024139309, 0.001366135, 0.029077515, 0.008086109, -0.026151458, -0.001055207, 0.015432010, -0.016236672, 0.000448985, 0.013800958, 0.006817028, -0.009351283, -0.017779062, -0.010228917, 0.020362524, 0.013953486, 0.027374009, 0.018724551, 0.023286844, -0.015569529, -0.017197190, 0.018004190, -0.007212980, 0.006762051, -0.004577311, 0.022217572, 0.005068522, -0.011436083, -0.023863122, -0.005974336, 0.006659017, -0.009593418, 0.026998941, -0.010227416, 0.003261220, 0.007485250, -0.006476411, 0.012262707, -0.002913811, -0.023960296, 0.036596436, -0.031739239, -0.016681904, 0.018047208, -0.004499116, 0.009827351, 0.029664580, 0.021518767, 0.006055434, 0.031958140, -0.007475874, 0.000759290, 0.006363804, 0.016094120, 0.014744429, -0.013721506, -0.010859513, -0.012560265, -0.010213342, 0.018451383, 0.013851236, 0.018126445, 0.002648772, -0.007889860, 0.007325941, -0.011788398, 0.022535000, 0.026900616, -0.032424089, -0.007774207, 0.012223278, -0.003310974, -0.016024549, -0.002390231, -0.022339711, 0.007905479, 0.022589462, -0.024627874, -0.041059203, -0.045275245, -0.017992953, 0.039541394, -0.003498622, 0.015754584, -0.020889038, 0.008726183, 0.016923038, -0.026534475, -0.001780917, -0.003987382, 0.017936101, -0.018948209, 0.018716065, 0.035578158, -0.011880782, 0.017117156, -0.003140335, -0.010329342, -0.003760675, -0.018634034, 0.020600770, 0.033616219, -0.014407028, -0.022050980, 0.002764126, 0.016253987, 0.005544661, 0.019532233, -0.007279018, 0.011721132, -0.016101887, -0.033555236, -0.058791857, 0.012302468, -0.012969070, 0.014038160, -0.011264058, -0.005463603, 0.002814159, 0.044996589, 0.031774841, -0.020372650, -0.045206599, -0.024077112, -0.010265561, 0.004941026, -0.025193773, -0.001350133, 0.034985710, 0.022244576, 0.017565265, 0.011734755, 0.019579845, 0.022714883, 0.021497186, -0.002308280, 0.059784956, 0.013117195, 0.006172567, 0.002314343, 0.034587301, 0.023508605, -0.010401590, -0.015049027, 0.015286110, -0.006647643, 0.000152560, -0.016538601, -0.013109230, 0.020856248, 0.011912731, -0.008597783, 0.008722794, 0.004728220, 0.018744353, -0.020858202, -0.008707616, 0.030620674, 0.008525464, 0.019799806, -0.029586155, -0.017029930, -0.000207823, 0.003214218, -0.005043811, -0.003866446, -0.017373616, 0.013179738, 0.007803010, 0.004261888, 0.012426799, -0.018818613, -0.015016749, -0.012112166, 0.006863992, 0.018816845, -0.004555956, 0.032845333, -0.006253005, 0.013028032, -0.009469639, -0.007216999, 0.003297239, 0.003452474, -0.021318678, 0.009854183, -0.003359037, -0.016917562, -0.037857264, -0.019650891, 0.000760923, 0.053438868, 0.000752286, 0.029683856, 0.010604117, -0.018590834, 0.002688106, -0.035901815, 0.014185890, 0.005693632, 0.017385947, 0.020353923, -0.018019771, 0.013155286, 0.023955829, 0.007981304, -0.005239607, 0.003207486, -0.051035102, 0.026703233, -0.021312010, 0.023645945, 0.024177399, 0.000583677, 0.029231202, 0.016299255, 0.019931512, 0.042998951, 0.023969842, 0.029166520, 0.000523429, -0.023328314, 0.003740067, -0.009490858, 0.017543703, 0.005936176, -0.012744725, 0.011311426, 0.002704931, -0.033630043, 0.000625725, -0.018571230, 0.017538290, 0.021989416, -0.022735357, -0.013680792, 0.009803683, -0.026894212, -0.013419817, -0.022414431, 0.004593365, -0.008157871, -0.029296523, -0.008236352, -0.035902243, -0.021753358, -0.006251717, -0.006716416, 0.003428625, -0.003715274, 0.013906490, 0.008097551, -0.001773863, 0.005875539, -0.005030619, -0.025723726, -0.007867911, 0.012675146, -0.000268134, -0.016368972, -0.004260431, -0.010564740, 0.021473706, -0.003073592, 0.049796931, -0.030786525, -0.036447588, -0.008819646, -0.003834191, 0.007283959, 0.007538794, -0.023492405, 0.022815645, -0.013127951, -0.002067918, -0.045905676, -0.006044807, 0.004504048, 0.040011957, -0.002019146, 0.001807318, 0.002668552, -0.014823716, 0.023488661, -0.000416410, 0.016951786, -0.027738579, -0.006915074, 0.027155846, 0.005960146, 0.009601574, -0.003399742, -0.004454351, 0.014439661, -0.008713956, 0.005010886, -0.035847574, -0.005685673, 0.034752596, -0.033868935, -0.009979513, 0.010513886, 0.003454016, -0.002345887, -0.015680082, 0.017507575, -0.014559500, -0.026464591, -0.001409310, 0.008282595, 0.015680406, 0.001859138, 0.000539069, -0.017302709, -0.022557031, -0.001931987, -0.011751384, 0.023110861, -0.002192751, -0.027408255, 0.029499352, 0.044300020, -0.012697564, -0.011221270, 0.016949032, 0.015539687, 0.017989432, 0.023348946, -0.014408852, 0.003278832, 0.019128134, 0.023584215, 0.011166378, -0.003278428, -0.032495443, 0.026086526, 0.040553119, -0.007391090, -0.003126921, -0.011558694, 0.008044863, -0.017865410, -0.019392857, -0.010065961, 0.012129356, -0.023148069, 0.017957637, -0.032130919, -0.018253949, -0.012688236, -0.003927351, 0.002982080, -0.036157683, 0.011353699, 0.007266927, -0.013926366, 0.023262834, -0.020331027, 0.026080105, -0.030269163, -0.008440761, 0.003918169, -0.050773166, -0.043024287, -0.008522767, -0.011320631, -0.016386490, -0.027482271, 0.027523758, -0.014775875, -0.002525645, -0.007841988, -0.050270975, -0.010503579, 0.011364685, -0.057077177, -0.022108998, 0.005099445, 0.003883641, 0.025131945, 0.011927933, 0.011050664, -0.010313525, -0.038718980, 0.012454758, 0.043414086, -0.030998062, -0.015736878, 0.022538075, 0.046481799, 0.026435830, 0.011387915, 0.014953734, 0.044537071, -0.011989895, -0.009517232, 0.012284254, -0.011525241, 0.011875287, -0.018125635, 0.041702375, -0.001947065, 0.016582318, -0.003294264, -0.006902957, -0.002501896, -0.010930632, 0.007763065, 0.017741770, 0.018337445, -0.029858887, 0.012116481, 0.013835205, -0.001963344, -0.010446718, 0.010200928, 0.006893020, -0.007848775, 0.014817476, -0.002965650, 0.000227042, 0.012867700, -0.002280555, 0.021840770, -0.017794641, 0.031567052, 0.014850256, 0.030093767, -0.008123286, -0.011393200, 0.009011032, 0.019544065, 0.027145825, -0.012158236, -0.024886493, -0.005248477, -0.018327516, 0.031214682, 0.016975075, 0.013120057, 0.018866232, -0.023897324, 0.002277073, -0.016207404, -0.010676278, 0.000816624, 0.005313127, 0.015270904, 0.032536261, 0.005551261, -0.020805806 };

// wpe_weight_ref, numel=128
float wpe_weight_ref[] = { 0.017780941, -0.008298324, -0.027580632, 0.018635081, -0.003444628, 0.008556118, -0.019200057, -0.008619873, 0.007785463, 0.020515876, -0.043195944, -0.002854946, -0.022154119, -0.033930264, -0.027831171, 0.008849238, -0.003748274, 0.014932830, -0.000008285, 0.022572296, 0.028445721, 0.003575306, 0.025298275, -0.015042322, 0.020451609, 0.042464741, 0.027315630, -0.014944358, -0.021197293, 0.039528660, -0.013538525, 0.015853437, 0.017296556, 0.026937805, 0.008813608, -0.002074753, 0.021099813, 0.015486659, 0.013421674, 0.018757358, 0.008666609, 0.011592670, -0.000956044, -0.013356857, 0.000304581, 0.009800466, 0.030606568, -0.005731708, -0.017327821, 0.012518119, -0.028582832, -0.002075663, -0.025872413, 0.006405633, -0.042266134, 0.001455257, -0.029709730, -0.026719656, 0.020138020, 0.026432669, 0.029728238, 0.006400617, -0.000905100, -0.032265451, -0.002101484, 0.014570903, -0.019228235, -0.005282900, 0.010380981, 0.006086764, 0.068347789, -0.005469318, -0.026737411, -0.017748861, 0.023771018, 0.002852405, -0.006520671, 0.003933388, 0.000552825, 0.002713737, -0.020934414, -0.008279631, -0.013230883, -0.014633387, 0.028379917, 0.021258740, -0.003143636, 0.015631365, -0.004458774, -0.014542644, -0.021081693, 0.030788839, -0.019019164, 0.019443192, 0.039046399, 0.002011864, -0.010528063, -0.008247545, 0.009325710, -0.011733921, 0.019975258, 0.044818569, 0.035536043, 0.029509928, -0.023358662, -0.005155399, -0.038240641, 0.002602541, 0.020008847, -0.017227860, 0.034884240, -0.002550346, 0.023298820, 0.026266346, -0.023074331, 0.024236735, 0.037788924, -0.002928528, -0.010449494, 0.017389204, 0.007553707, 0.018858721, -0.006677679, -0.020269779, 0.006451109, -0.003775412, -0.033444744, 0.004379231 };

// ln1_gamma_all_ref, numel=32
float ln1_gamma_all_ref[] = { 1.000000000, 1.000000000, 1.000000000, 1.000000000, 1.000000000, 1.000000000, 1.000000000, 1.000000000, 1.000000000, 1.000000000, 1.000000000, 1.000000000, 1.000000000, 1.000000000, 1.000000000, 1.000000000, 1.000000000, 1.000000000, 1.000000000, 1.000000000, 1.000000000, 1.000000000, 1.000000000, 1.000000000, 1.000000000, 1.000000000, 1.000000000, 1.000000000, 1.000000000, 1.000000000, 1.000000000, 1.000000000 };

// ln1_beta_all_ref, numel=32
float ln1_beta_all_ref[] = { 0.000000000, 0.000000000, 0.000000000, 0.000000000, 0.000000000, 0.000000000, 0.000000000, 0.000000000, 0.000000000, 0.000000000, 0.000000000, 0.000000000, 0.000000000, 0.000000000, 0.000000000, 0.000000000, 0.000000000, 0.000000000, 0.000000000, 0.000000000, 0.000000000, 0.000000000, 0.000000000, 0.000000000, 0.000000000, 0.000000000, 0.000000000, 0.000000000, 0.000000000, 0.000000000, 0.000000000, 0.000000000 };

// ln2_gamma_all_ref, numel=32
float ln2_gamma_all_ref[] = { 1.000000000, 1.000000000, 1.000000000, 1.000000000, 1.000000000, 1.000000000, 1.000000000, 1.000000000, 1.000000000, 1.000000000, 1.000000000, 1.000000000, 1.000000000, 1.000000000, 1.000000000, 1.000000000, 1.000000000, 1.000000000, 1.000000000, 1.000000000, 1.000000000, 1.000000000, 1.000000000, 1.000000000, 1.000000000, 1.000000000, 1.000000000, 1.000000000, 1.000000000, 1.000000000, 1.000000000, 1.000000000 };

// ln2_beta_all_ref, numel=32
float ln2_beta_all_ref[] = { 0.000000000, 0.000000000, 0.000000000, 0.000000000, 0.000000000, 0.000000000, 0.000000000, 0.000000000, 0.000000000, 0.000000000, 0.000000000, 0.000000000, 0.000000000, 0.000000000, 0.000000000, 0.000000000, 0.000000000, 0.000000000, 0.000000000, 0.000000000, 0.000000000, 0.000000000, 0.000000000, 0.000000000, 0.000000000, 0.000000000, 0.000000000, 0.000000000, 0.000000000, 0.000000000, 0.000000000, 0.000000000 };

// Wq_all_ref, numel=512
float Wq_all_ref[] = { 0.010570688, 0.016943859, -0.009888623, 0.000570368, -0.017722942, 0.010899160, -0.014159506, 0.009453468, 0.012660670, 0.006350999, -0.005331599, 0.017392891, 0.003199095, 0.005842797, -0.025181152, -0.003677560, -0.009407556, 0.056579728, -0.004313302, -0.002605387, 0.006697468, 0.014640503, 0.015721750, 0.035220094, -0.018273914, -0.020988630, -0.025925236, 0.016401773, 0.010461195, -0.017160682, -0.012573753, 0.026210185, -0.000110638, -0.035305381, 0.015009299, -0.014868436, -0.007765631, -0.023167884, 0.019792723, -0.005362058, -0.006847579, 0.014985117, 0.026294840, 0.004478487, 0.015951879, 0.043155719, 0.012492059, -0.011957072, -0.007278380, -0.018458420, -0.001529693, -0.010883140, -0.021400418, -0.008338966, 0.021942981, -0.038653888, 0.018334625, -0.006912438, 0.031143505, 0.032517157, 0.007650659, -0.028395612, 0.028082810, 0.015883373, 0.006389017, -0.013441498, 0.024341017, -0.007408328, -0.000232408, 0.006837017, 0.009250489, 0.002956734, 0.006498145, 0.021122882, -0.007508112, -0.003837669, 0.022797627, 0.019385878, -0.001450875, -0.007049466, 0.009734025, 0.008244005, -0.007488687, -0.021615939, -0.000650132, 0.017616456, 0.000415235, -0.000644125, 0.005052387, -0.013066902, -0.026615961, -0.020328941, 0.040336452, -0.015214094, 0.023102814, -0.007446978, -0.033023585, 0.014898864, 0.023167484, -0.000755756, -0.004309085, -0.013795738, 0.000290473, -0.001510526, -0.032604590, -0.002545859, 0.006210525, 0.011706294, 0.002228276, -0.003078911, -0.000266695, 0.013988322, -0.007252713, 0.032163199, 0.020943549, -0.015764063, -0.010198151, -0.016694179, -0.010912855, -0.013159580, -0.016899619, 0.035139468, 0.015420957, -0.014056153, -0.013557393, 0.008393115, 0.012493696, -0.017154541, -0.009014281, 0.012084264, 0.025644634, -0.002556605, -0.016801657, -0.073131524, -0.028594121, 0.023337936, -0.030318169, -0.023559282, 0.011598754, -0.002074013, 0.003090277, -0.021231834, 0.025606737, 0.018670740, -0.004145819, 0.017666768, -0.007216454, 0.019803686, 0.019757831, -0.029268870, -0.019444929, -0.006280395, -0.035784725, 0.031624135, 0.006326786, 0.010614638, 0.010372324, -0.013152741, 0.041165531, 0.018506367, -0.022523757, 0.022649640, 0.003968619, -0.025443384, 0.013269722, 0.008460106, -0.021584775, -0.001901524, -0.027150124, -0.012126511, -0.009942365, 0.015393165, 0.001558236, -0.006214750, -0.023234580, 0.025981504, 0.004208967, 0.020788997, -0.007384205, -0.010228084, 0.004395900, -0.001545941, -0.010704511, 0.017129118, -0.009048789, -0.018061124, 0.033267796, -0.024845054, -0.012438578, 0.021153215, 0.004930816, 0.011891900, 0.017652808, -0.015144111, 0.014581736, -0.007740097, 0.026000410, 0.023866458, 0.037684653, 0.002132938, 0.019092688, 0.002116120, -0.010635657, -0.039610531, 0.005369119, -0.011147112, 0.008159845, 0.003040255, -0.024930766, -0.007915888, -0.005863912, -0.009762490, -0.013220495, 0.028419701, 0.005895953, 0.011855043, -0.042335048, -0.014092272, 0.007669253, 0.021568624, 0.050084218, 0.002999580, 0.004502616, -0.037718527, 0.025888614, -0.000983777, -0.001980448, 0.016465358, 0.015927160, 0.002516896, -0.011202163, -0.001366339, 0.004847188, -0.004246502, -0.017070552, -0.006551454, -0.002469083, 0.024713779, 0.000125370, 0.029389257, 0.003862752, -0.019466715, 0.001904406, 0.020961447, -0.004144811, -0.012011700, -0.021669546, -0.009173770, 0.035149604, 0.000680672, -0.025470840, -0.030953471, -0.023060638, -0.009209373, 0.012019320, -0.007584348, -0.011896059, -0.010319655, 0.002972372, -0.010099906, -0.019247068, 0.019436674, -0.021780098, 0.019166805, -0.008040125, -0.012113933, 0.008275546, 0.016203415, 0.006387074, 0.004304830, -0.019056959, -0.019305833, -0.001923894, 0.002259150, 0.010466311, -0.034545574, 0.008839658, 0.020696856, 0.003376632, 0.000442544, -0.032037452, 0.056375537, -0.022445645, -0.010614864, 0.016867388, 0.020686802, 0.000291353, -0.076200552, -0.002722624, -0.038293414, -0.003764736, 0.015408563, 0.022629453, 0.021261889, 0.018349132, -0.025794957, 0.020254612, -0.004999219, 0.006850203, -0.016109975, -0.009256886, -0.018176155, 0.025767455, 0.011013935, -0.011085672, 0.007340717, -0.049641114, 0.025934855, 0.009937359, 0.006832948, 0.015167042, 0.026052155, 0.049981792, -0.009041055, -0.048822187, -0.022707781, -0.000965072, -0.003103131, -0.052707553, 0.018366948, -0.008719911, 0.005818753, -0.023264524, -0.025534622, -0.004228225, -0.006471250, 0.012939662, -0.005408212, -0.001560685, -0.027534513, 0.021597471, 0.051482089, 0.033325657, 0.034472819, 0.017264076, 0.001798108, 0.026349124, -0.004030740, -0.001500137, 0.020250680, -0.009928238, -0.007908884, 0.022953017, -0.006355668, 0.011711814, -0.031289250, 0.028455805, -0.004566088, -0.003843211, 0.006260885, -0.009890282, 0.015097559, -0.013566410, -0.007733840, 0.002377487, 0.019212183, -0.029647274, 0.018401824, -0.001988980, 0.034880459, -0.008113598, -0.035859801, -0.012930797, -0.013848866, -0.032719448, 0.024491774, -0.009808962, 0.002634535, 0.025275394, 0.017021935, 0.016330719, 0.009389920, 0.051140580, -0.019206600, 0.004545877, 0.025924657, -0.038097933, -0.029056288, 0.013726390, 0.012401766, 0.020832062, -0.013468552, 0.014820690, -0.003236778, -0.015888251, -0.020024350, -0.038015496, 0.003110520, -0.028510744, 0.023680462, 0.027899912, 0.005180483, -0.026974229, 0.008138786, 0.005023749, 0.022321383, 0.014382588, 0.006355290, 0.012304480, 0.010687163, 0.026291579, -0.005985111, -0.006747781, 0.027377903, 0.036453940, 0.001991129, -0.041076880, 0.009462615, 0.019561063, 0.019279527, 0.032718726, 0.000929559, 0.019233523, -0.008152429, 0.041563082, 0.021507883, -0.012014647, 0.007483440, -0.023708917, 0.001967043, -0.008015237, -0.019584537, -0.045742892, 0.007045581, -0.000996038, -0.037957150, -0.020926734, 0.012130824, -0.021222670, -0.009704661, -0.036969032, 0.008124718, -0.000187742, 0.004037882, -0.013549672, 0.010197371, 0.003670456, -0.018666714, 0.013344731, 0.015646104, -0.005195512, 0.016037446, 0.053540841, 0.038867958, -0.022126699, -0.030508639, 0.008596776, -0.008407438, -0.023161441, 0.005627222, 0.022588922, -0.009600240, -0.032332107, -0.016596913, -0.026144592, -0.025476651, -0.009700939, -0.002142955, -0.022068525, -0.009531555, 0.001192090, -0.009170920, 0.000272416, 0.028472666, -0.017653869, -0.003532756, 0.021659104, -0.008994359, 0.005063194, 0.013601513, -0.025987301, -0.010439131, -0.002591586, 0.039384801, 0.012640068, -0.005800191, -0.004744742, 0.028636450, -0.001826242, -0.013518305, -0.014493885, -0.008518903, -0.007816016, 0.009970053, -0.010722642, 0.015944015, -0.023850998, -0.023837160, 0.013083399, -0.032526668, -0.002693654, 0.002264835, 0.015051318, 0.018609792, -0.009955304, 0.011098693, -0.005524280, 0.007250894, -0.026358290, 0.011700481, -0.018409079, 0.009859440, 0.028774861, -0.022065083, -0.022795031, -0.000304088, 0.016828885, 0.015340743, 0.007043291, 0.008359402, 0.004335004, -0.000398609 };

// Wk_all_ref, numel=512
float Wk_all_ref[] = { -0.017424371, 0.012492917, -0.017740617, -0.001031812, 0.040546808, -0.038929544, -0.001279309, 0.045032311, -0.014580414, -0.012843004, -0.025827937, -0.006872016, -0.019971740, -0.011222423, -0.029697981, -0.019026671, 0.025666187, 0.029159660, -0.024580780, -0.010868220, -0.086865604, 0.047307886, -0.013498819, 0.015404983, -0.001335171, -0.004451461, -0.025598330, 0.008579059, -0.025424892, -0.010403438, 0.018119369, 0.006594526, -0.043159574, 0.019616684, -0.013413666, -0.026391480, 0.023108747, 0.000806013, -0.031582419, 0.001317912, -0.005758882, 0.028014416, -0.022962529, 0.017741716, -0.027874224, -0.000655563, -0.007628837, 0.013621337, 0.000627493, 0.005327241, -0.024414623, -0.021553764, -0.001650840, 0.011694603, 0.026735077, 0.022023983, 0.003865859, -0.018864041, 0.019512620, 0.003290487, -0.011354008, 0.013463493, 0.017999223, 0.008321827, -0.021233493, -0.009228867, 0.028229130, 0.011805074, -0.022324221, 0.030828362, 0.013750933, -0.015524453, -0.004744812, -0.007003782, -0.025400814, -0.007343237, -0.013256244, -0.007308809, -0.023401124, 0.010889781, 0.005627381, -0.012819461, 0.002510574, 0.017152404, -0.016611451, 0.003969749, -0.044185624, -0.022770958, 0.017172305, -0.021287205, -0.006968881, 0.023295555, 0.015126369, 0.016871091, 0.026344387, 0.003656452, -0.005751719, -0.021664979, 0.010719053, -0.026750999, 0.018458605, -0.018684706, 0.012810109, -0.006922471, -0.000556636, -0.023359744, 0.000714824, -0.022336904, -0.011736133, 0.015055056, -0.008224923, 0.006182743, 0.033850443, -0.016147269, 0.023083594, -0.008770584, -0.005244091, -0.002849870, -0.002691912, 0.003549595, -0.016856674, -0.021590333, -0.010653579, -0.003312244, -0.029055472, 0.023804599, 0.012614836, -0.025573472, -0.017152892, -0.023510490, 0.038360517, -0.015253576, -0.019061565, 0.007844210, 0.026495146, -0.012819836, -0.005395858, 0.016373092, 0.007839154, -0.012809133, -0.011273167, 0.002845652, 0.030376755, -0.017808409, 0.002387917, 0.006963102, 0.003839982, 0.023796983, -0.002617046, 0.007092485, 0.016291440, -0.000856862, -0.011549797, 0.021287641, -0.019708538, -0.004395513, -0.019730955, 0.009547469, 0.010549421, 0.007628501, 0.003185702, -0.015289440, -0.002526891, -0.009178445, 0.009065663, 0.004041097, 0.015232225, -0.018048083, -0.000463883, -0.020256121, 0.003289499, -0.003079172, -0.011408142, -0.023078293, 0.028295079, 0.013187981, 0.032662116, -0.013062717, 0.004694656, 0.035248637, 0.001650947, 0.007608090, 0.008146718, 0.027498877, -0.011904313, 0.031916980, 0.001402472, -0.015309596, -0.022980725, -0.019461652, -0.001394925, -0.016699517, -0.000060797, -0.011170960, -0.013279638, 0.007116280, 0.025144769, 0.014182625, 0.014345486, 0.042693809, 0.005620977, -0.031031746, -0.041158557, -0.031838510, -0.017076977, -0.017113404, 0.016036395, -0.011211793, 0.002343941, -0.031072732, 0.005604833, 0.013620309, 0.021454249, -0.026470527, -0.017810551, -0.017802399, 0.016495738, -0.013146305, 0.015001322, 0.014228014, -0.046000887, -0.006598111, -0.014236788, -0.004883597, 0.006650495, -0.009209190, -0.012913810, -0.004383129, 0.001946067, 0.008856298, 0.023761213, -0.014140816, -0.000294947, -0.001101942, -0.011781259, 0.022356717, -0.001364008, -0.003408937, 0.002974958, -0.032060660, -0.006304877, 0.016755553, -0.005525533, -0.028780207, -0.017289625, -0.001748222, 0.005458347, -0.018030690, 0.011011690, -0.068313651, 0.017140888, 0.007299077, -0.013968742, 0.019458340, -0.017428998, 0.001177735, 0.018576697, 0.007860202, -0.006288100, -0.033414762, 0.009530485, 0.018232835, 0.008904288, 0.025837889, -0.000687214, 0.005996061, 0.019846009, -0.016106412, -0.013210195, -0.021002065, 0.018271428, -0.002437803, 0.005487999, -0.007844363, 0.006148581, -0.017857794, 0.014349535, 0.023027549, -0.005575325, 0.007872392, 0.022990683, 0.012456321, 0.030658953, -0.009910679, -0.037726752, -0.009762038, 0.020123430, 0.033185050, -0.038044605, 0.015722092, -0.033072151, -0.015334893, -0.017011402, 0.036208414, -0.028038923, 0.011014566, 0.027303074, 0.002887981, -0.007340286, 0.032110844, -0.034650598, -0.020753026, 0.040270023, 0.004293657, -0.028703436, 0.031383812, 0.018664734, 0.035886601, 0.006261280, -0.004502333, -0.009858711, 0.003043277, 0.009209150, 0.020344002, 0.057435039, 0.007783573, -0.007789673, -0.007811149, -0.013792798, -0.009122140, -0.007870237, -0.008741892, -0.018783564, 0.027233429, 0.019821327, 0.002525194, 0.018566255, -0.016900491, -0.036380272, 0.000234179, 0.032828327, -0.031543378, 0.003056288, -0.009774886, -0.015679121, 0.003184048, 0.021781810, 0.035798166, -0.014173169, 0.009607847, -0.010701803, 0.004280925, 0.024334038, -0.001713787, 0.008670014, -0.001986411, 0.038706735, -0.014122467, -0.017077107, -0.007982016, -0.034728527, 0.008235793, 0.022891369, -0.019987555, 0.001493661, -0.009435564, -0.036347233, -0.010460040, 0.016547574, 0.018168781, 0.008804376, 0.018535683, 0.017986361, 0.018163795, -0.030002074, -0.013849039, 0.023309201, -0.020113349, -0.015575450, 0.013220694, 0.002524603, -0.028199548, 0.003868539, -0.030656278, 0.010297785, 0.010094473, -0.011227340, -0.037810698, -0.036908638, 0.043141659, 0.043429833, -0.027482774, 0.000107290, -0.033994757, -0.015336161, 0.026359355, -0.014240742, 0.018298561, -0.051861245, -0.038211998, -0.027811335, 0.020783480, -0.029320206, 0.000061079, 0.019540705, 0.020684481, 0.013043724, 0.004742089, -0.008352552, 0.018509263, 0.018198201, 0.031630374, -0.015413937, 0.013650367, -0.005563788, 0.013738744, 0.000455321, 0.047126602, -0.014389865, 0.021686859, 0.027021153, -0.005646972, -0.029371776, -0.021594191, 0.009945274, 0.021675222, -0.010350232, -0.019786179, -0.003089382, 0.032346804, -0.041639652, -0.009544398, 0.012351166, -0.008852999, 0.011126021, 0.000440268, 0.007828778, -0.001106900, 0.008596047, 0.003768004, -0.040956590, 0.001824205, -0.008131202, 0.008127565, -0.017505744, 0.016646180, 0.001898653, -0.002867855, 0.018247018, 0.024124391, -0.036607835, 0.011395769, 0.008660985, -0.044727173, -0.031115312, 0.003912847, 0.019818965, -0.040266801, -0.006807497, 0.042764749, -0.024451669, 0.008420454, -0.044241995, -0.009158230, 0.053884163, 0.002544198, 0.023006866, 0.009931815, -0.036391377, -0.054315772, 0.011573917, -0.000050173, -0.000576229, 0.019253897, -0.008255758, -0.009978624, -0.011272555, 0.002459659, 0.003911355, 0.022721210, 0.021782070, 0.032078639, 0.000790720, -0.017837506, 0.003659884, 0.008072865, -0.019026598, 0.008141667, -0.005274626, 0.009982301, -0.004033159, 0.006908339, -0.012820466, -0.024146397, -0.013653270, 0.008325039, 0.000717036, -0.002286570, -0.020923674, -0.029513458, -0.002745053, 0.041624531, -0.009193130, 0.020260222, 0.006344743, -0.011232142, -0.004774505, -0.023597253, -0.009545839, 0.016938217, -0.014936691, -0.018243313, -0.008959997, 0.010961077, -0.000570450, -0.006144131, 0.002650609, -0.027416715, -0.010608142, 0.000526412, 0.025132945, 0.021343907 };

// Wv_all_ref, numel=512
float Wv_all_ref[] = { 0.029262295, -0.009178123, 0.002326413, -0.005657208, -0.001938650, -0.001988109, 0.028685106, 0.017948350, -0.005469965, 0.023594679, -0.018438740, -0.005323044, 0.054802377, -0.003188668, 0.004701323, -0.002766819, 0.010886475, -0.019314254, -0.040973697, -0.019336484, 0.010562963, -0.006396794, -0.021254575, -0.030486926, -0.030059451, -0.008628656, -0.021462487, 0.011494301, -0.006651230, 0.032460891, -0.005453038, 0.053819608, 0.000828144, 0.028553221, -0.006890697, -0.016827995, -0.013360449, 0.032074485, 0.040136192, -0.033434436, -0.005983572, 0.006719687, -0.012043439, 0.017643282, -0.011552698, -0.007433479, 0.009185466, 0.018384516, -0.023800688, -0.002371903, -0.002651190, -0.020940345, 0.002045147, -0.009877680, -0.020245636, -0.021654703, 0.008765564, 0.040372651, -0.018797381, 0.039042845, -0.007886478, -0.014382484, 0.016271207, -0.008649340, 0.012261566, -0.015353637, -0.013806552, -0.021801535, -0.021054607, -0.029282104, -0.029744040, 0.006824268, -0.006432605, -0.001483510, 0.008226737, -0.020469418, -0.005933719, 0.000885305, -0.003757481, -0.010176749, -0.032167014, 0.002831219, 0.027218329, 0.000372482, 0.007459115, 0.016150551, -0.001380288, 0.036876619, -0.022206880, 0.018621344, -0.005633955, 0.025765194, 0.041745305, -0.014460488, -0.017057950, -0.003762939, -0.007862970, -0.011352673, 0.001784852, -0.003592295, -0.027433619, 0.006595199, -0.000117943, -0.012230210, -0.009622545, 0.015730560, 0.007518584, 0.014086930, 0.011478452, -0.014647554, 0.004357450, -0.036482222, -0.030152904, -0.022535341, 0.004086945, -0.001440050, 0.001023124, 0.050898392, -0.001194332, -0.004445977, -0.032887481, -0.021275120, -0.007677147, -0.002297343, 0.013969994, 0.022089370, -0.004602317, 0.007615828, -0.026697451, 0.002855191, 0.015766965, 0.027979050, -0.004170910, 0.020390606, 0.009680967, -0.003004960, 0.047852438, 0.000633774, -0.035880152, -0.018697482, -0.012834745, 0.001737413, -0.013637446, -0.015760953, 0.020256981, 0.046422198, 0.023826210, -0.009356545, 0.005251383, -0.006220669, -0.023926096, 0.015940892, -0.008423903, 0.002397224, -0.011188614, -0.007332360, 0.014522086, 0.022889713, 0.022053795, 0.004514917, -0.021924073, 0.043775599, -0.037624501, -0.020293921, -0.012167906, -0.004296161, -0.023522379, -0.013764790, 0.013450463, 0.024757685, 0.004854204, 0.000248308, -0.008182783, 0.019334955, -0.023833105, -0.009946112, -0.010435937, 0.012202505, 0.009317993, -0.022000844, -0.026757965, -0.024755273, -0.028919021, -0.008303008, -0.014591803, -0.004421450, 0.002774640, -0.005680791, 0.030397041, -0.035513688, -0.020951614, -0.000679293, 0.016476776, 0.067384474, -0.019345323, 0.035667755, -0.004964642, -0.027458949, -0.014956342, -0.005182071, 0.036775060, -0.001958235, -0.002377655, -0.009177205, 0.016183278, -0.035586286, -0.029933270, -0.041906971, -0.031963218, -0.022010352, 0.015877118, -0.009050669, -0.020237422, -0.002731191, -0.027847523, -0.003515912, 0.024617504, -0.007022699, -0.021259274, 0.003220087, 0.019009547, 0.005667343, 0.001105325, 0.000164906, -0.031839684, -0.049270798, 0.003853354, 0.015559717, 0.038653858, 0.006893188, 0.016687259, 0.009321073, -0.003584123, -0.002801928, 0.016101096, 0.011382578, 0.000691753, -0.006860250, 0.032453001, 0.025370907, -0.018658942, 0.004772511, -0.003818486, 0.028224459, 0.013326388, -0.006551645, -0.024575731, 0.015858782, -0.002447161, -0.017317869, -0.010699392, -0.002452096, 0.001044816, 0.030400163, 0.026467877, -0.000046187, -0.026797961, -0.030419892, -0.038426582, 0.026723543, -0.033982597, 0.013795512, -0.026358403, -0.001453705, -0.031155664, -0.039407473, 0.023260841, 0.032087546, -0.017313361, -0.004721792, -0.007453386, -0.024069646, -0.034158271, 0.001714780, -0.002896408, 0.032010596, -0.014010312, 0.009377195, -0.016881993, -0.008875497, -0.006212805, -0.016189845, 0.029136395, -0.013763671, 0.020425858, -0.012550358, 0.013229010, 0.043682761, -0.004475825, -0.011090705, -0.000849026, 0.042468682, 0.002299389, 0.004127566, -0.007777291, -0.032274902, -0.025500376, -0.021359479, -0.027632913, 0.000803026, -0.003139333, 0.011817175, 0.006853557, 0.002321625, -0.004386962, -0.011999761, 0.030088382, -0.005065122, 0.048596065, 0.003228052, 0.016677024, -0.010758607, 0.019947244, -0.003015933, 0.001581920, -0.004329885, -0.023012364, 0.015672794, -0.031527996, -0.015053486, -0.044028502, -0.040855106, 0.017830009, -0.005831541, -0.014214965, 0.015881022, 0.046044905, -0.041846313, 0.046583764, -0.054408543, -0.004678291, -0.029212393, -0.041761912, 0.009678808, 0.027264394, -0.020457234, -0.020582356, -0.008473289, -0.009318060, 0.036391590, 0.034472812, 0.000233483, -0.014146916, -0.027137833, -0.001385924, -0.010980803, -0.004092629, 0.010572470, 0.023948690, 0.015185359, 0.002698630, 0.008970462, 0.011796279, -0.020239126, 0.009485389, -0.016078478, -0.015838515, 0.007329038, 0.014136783, 0.014639894, -0.010094007, 0.009562822, 0.010181240, -0.011095882, 0.001249626, -0.031344224, 0.009702478, -0.023232510, -0.003419936, 0.012987175, 0.045874920, -0.000338407, 0.006613817, 0.001835524, 0.020190613, -0.025816878, 0.011240282, -0.024503633, 0.011774114, 0.025474850, 0.015423257, -0.003080679, 0.043952450, -0.014983203, 0.003482258, -0.043547567, -0.008540255, 0.023602689, -0.021005558, -0.030960832, -0.007874830, 0.021808347, 0.025764383, 0.019439703, -0.054642823, 0.021422632, 0.010478360, -0.020965151, 0.007754593, 0.025295328, 0.002638440, 0.000966737, -0.001691755, -0.005276226, -0.016213689, -0.020256734, 0.049687155, -0.018917598, -0.015976025, 0.028678596, 0.011727554, -0.010781853, 0.027629999, 0.000943341, -0.000037674, -0.013461404, -0.005256496, -0.040749054, -0.007277025, 0.001209231, -0.037112135, -0.009952372, 0.043132085, -0.008360004, 0.016775871, 0.008639182, -0.019839397, -0.008642146, -0.041879639, -0.003549787, 0.008082390, 0.003418129, -0.020794272, -0.026780656, -0.013767967, -0.001554697, 0.010470679, 0.009265976, -0.006186062, 0.020167273, 0.019189170, 0.025587093, -0.031855151, 0.011264905, 0.021807034, -0.016963057, 0.009376494, 0.010899719, 0.001691665, 0.020759134, 0.003311305, 0.027420640, -0.027566683, 0.025790576, 0.020410018, -0.028208425, 0.033818383, 0.012505020, 0.008378637, 0.033393670, 0.003989464, 0.026490597, -0.001080069, -0.007724144, -0.050827436, 0.013562025, -0.018842019, -0.019554019, 0.048342384, 0.001782122, -0.015737571, -0.023555316, -0.027719839, 0.002281975, -0.001815786, -0.009310511, 0.011619929, 0.001158428, -0.009434876, 0.020767935, 0.007436183, 0.003286710, 0.042224221, -0.032703124, -0.030978207, -0.020311093, -0.009455723, -0.014069988, 0.009389823, -0.010120082, -0.002315872, -0.007282186, -0.014937514, 0.017585626, -0.024153451, -0.032228623, 0.007183535, 0.006628723, 0.017000576, -0.001231234, -0.014438673, 0.011379568, -0.007922296, 0.025784085, -0.045065589, -0.023515362, -0.005959003, -0.012174403, 0.005335218, 0.001397939, -0.003217291, 0.034414791 };

// Wproj_all_ref, numel=512
float Wproj_all_ref[] = { -0.026243741, -0.004837581, -0.008373543, -0.050588567, -0.032624837, -0.004153568, -0.016318884, -0.018492572, 0.020717384, -0.017125010, 0.011418674, 0.031097936, -0.003037316, -0.029156648, -0.002586675, -0.039753284, -0.020204155, -0.009028540, 0.038681068, 0.003300332, -0.008987207, 0.029418038, -0.016659837, -0.025711862, 0.039517410, -0.015666308, -0.027791070, 0.001663929, -0.017961709, 0.007553904, 0.001154099, 0.013225155, 0.039939832, 0.008755576, -0.001834220, 0.034437083, 0.009722205, 0.008961217, -0.006186995, 0.045711849, 0.014966736, 0.028399052, -0.016171677, 0.017048780, -0.014204762, 0.023142170, -0.010335547, -0.004758674, 0.010815791, 0.002762414, -0.027803596, -0.015107287, -0.017064719, 0.010684896, 0.013983678, 0.022959456, -0.026473604, 0.002971468, -0.017264234, 0.007531617, 0.008766591, 0.021874873, 0.012104504, 0.002917772, -0.009987440, -0.043618143, 0.000712982, 0.001152456, -0.037540767, 0.013435879, 0.016397692, -0.008792257, -0.002191818, 0.047825038, 0.002343965, 0.004231486, 0.022140343, 0.008677626, 0.018208619, -0.022745175, 0.006509201, -0.021494320, -0.003902781, 0.004935360, 0.000189740, 0.008799150, -0.000975382, 0.006307063, 0.008765587, -0.023645597, -0.023368409, 0.015536587, 0.020538788, -0.003036600, -0.000264134, -0.027202450, -0.033026688, 0.007825200, -0.022241162, -0.004349509, -0.013458363, -0.003264588, 0.026793169, -0.002821726, -0.019962408, -0.013971615, -0.005018622, -0.010521383, -0.005241042, -0.035299156, -0.031376496, 0.003041221, 0.003173643, 0.002437037, -0.000666304, 0.031611443, 0.011863698, -0.025571413, -0.016702034, 0.001119207, -0.003538105, -0.012236756, -0.009409961, -0.000188967, -0.021363346, 0.020655761, 0.049813706, 0.028543551, 0.044949871, 0.006759510, 0.028142877, 0.030816931, 0.009054757, 0.033403039, -0.011679272, -0.009529489, 0.006686131, -0.009399748, 0.003928741, -0.041925412, -0.005784793, -0.000744328, 0.015636459, 0.015110767, 0.008170594, 0.025615413, -0.011735091, 0.009766922, -0.002961341, 0.000658072, 0.001989621, 0.033792939, 0.008024037, 0.032433856, -0.055461261, -0.008052167, 0.023000346, 0.003725593, -0.022400958, -0.013711436, 0.022590777, 0.002004461, 0.027306471, 0.014804911, 0.023358474, 0.013500244, -0.009918226, 0.010174560, 0.033216149, -0.021020379, -0.007433583, 0.025512202, 0.008494381, -0.020673968, -0.002065667, 0.012153251, 0.023595836, -0.018483847, 0.019904373, -0.012114066, -0.007780826, 0.002160265, -0.025719125, -0.019326720, -0.001598840, -0.037292469, -0.025182826, 0.009981044, -0.008500235, 0.005392797, -0.013554158, 0.014902241, 0.010924284, -0.002749582, 0.017635720, 0.000131978, -0.005382459, -0.033202015, 0.006560151, -0.003520370, 0.014462608, 0.055885423, 0.015080150, -0.028796794, 0.018626425, -0.022129744, 0.007734213, -0.011923249, -0.020944079, 0.011252153, -0.002910793, -0.031409305, 0.008016498, -0.024721038, 0.012340946, 0.054547232, 0.004812331, -0.007252939, -0.018465430, 0.012460097, -0.025081117, -0.015495494, 0.018358771, -0.004447476, -0.006486647, -0.006795291, 0.047304440, -0.011219318, -0.012429520, 0.024668083, -0.001646908, -0.005554252, 0.012025069, -0.004266395, 0.017064871, -0.029384708, -0.042990979, -0.018302517, 0.022846010, -0.014756526, -0.035499793, 0.000407253, -0.001584935, 0.016290413, -0.013072786, 0.021688385, -0.002346225, -0.001285117, 0.018784162, -0.018037137, -0.011239827, 0.010414726, -0.056099065, 0.002071202, -0.006228795, -0.002134500, -0.009924756, 0.010933264, -0.002278011, 0.028805975, 0.015411122, -0.000962548, 0.029476285, 0.028472982, 0.043927025, 0.011743054, 0.013487476, 0.017700503, 0.013413712, 0.008762018, 0.000161042, -0.025791449, 0.006591192, 0.017678274, -0.019560494, 0.018950744, -0.039728370, -0.020721497, 0.018639140, 0.031650968, -0.002999257, -0.026020736, 0.002748155, -0.022676136, 0.022682885, -0.027875079, 0.011881136, 0.017823888, 0.052406166, 0.014086084, -0.016817044, 0.010901950, -0.025184214, -0.001772319, 0.029200355, -0.016146639, -0.017466567, 0.038189493, 0.003119757, 0.000040695, -0.007027151, -0.012967482, -0.022446167, -0.000706492, -0.030860860, 0.002909608, -0.011006625, -0.007058123, -0.004687421, 0.007552360, -0.024403080, 0.000068520, 0.017761823, 0.013586276, 0.005015727, -0.010318210, 0.020243760, 0.014464598, 0.011750911, -0.007663862, 0.016602807, -0.025948910, -0.002223269, -0.022210605, -0.002275573, -0.009378395, -0.005128589, -0.015988413, 0.011230608, -0.002560584, -0.007821355, 0.025259079, -0.009397507, -0.002112846, -0.016412450, 0.001600280, 0.002464403, 0.022488037, 0.006803287, 0.033054106, -0.021469902, 0.009279626, 0.000787940, -0.013591087, 0.016891355, -0.004065968, 0.025955830, -0.000352735, -0.002268194, -0.014335028, 0.013795398, -0.031900998, -0.024498705, 0.011587562, -0.030855419, 0.000914323, 0.022202751, -0.007377902, 0.011837105, -0.007254342, -0.003450471, 0.004365952, -0.012201918, 0.020979824, -0.009078450, 0.012074539, 0.011974002, 0.016825905, 0.014912636, 0.018250596, -0.001567480, -0.025791418, 0.009710619, 0.016390728, 0.012348202, 0.036341485, -0.012314623, -0.015182857, -0.014954898, -0.039794639, 0.000066513, 0.005445081, -0.046460021, -0.012690784, -0.000398333, 0.000795606, -0.012523977, -0.003958934, 0.004830784, 0.026838895, 0.001945641, -0.006054847, -0.012401906, -0.025353206, 0.014615472, -0.029706841, -0.002540490, -0.011160417, 0.015422571, -0.019333674, 0.012783650, -0.013455546, -0.021323495, -0.038315620, -0.010281917, -0.023682982, 0.043162294, -0.048933573, -0.004955325, 0.008968026, -0.038529128, 0.007341831, -0.063608624, -0.025026420, 0.005402016, -0.007312357, -0.003126168, 0.004022996, 0.030377205, -0.004173999, -0.010527731, 0.009211746, 0.003633143, -0.003143898, 0.007491082, -0.012387580, 0.005354661, 0.054060463, -0.015707226, 0.005587813, -0.010383472, -0.003838580, -0.013804861, 0.011626611, -0.003844591, 0.014759327, -0.004547116, -0.015412203, -0.014027783, 0.000847006, -0.022253096, 0.009702826, 0.010160907, 0.017697163, -0.000705789, 0.041331954, 0.011363623, -0.004235859, 0.014985133, 0.019117687, -0.032516953, -0.007714385, -0.040243696, 0.000410165, -0.008029984, -0.009969079, -0.007674992, 0.011203862, 0.003821560, 0.017520431, -0.007369698, 0.020149376, 0.024970310, 0.022384984, -0.010661134, 0.003478187, -0.014589516, -0.015176924, -0.038545821, 0.014721557, -0.025237460, 0.009148254, -0.009225128, -0.031005822, 0.000772319, -0.012590363, 0.043454774, -0.038504362, 0.010466925, 0.009606981, 0.014963359, 0.005284966, -0.025638942, 0.002532679, -0.004496854, 0.012577146, -0.029902726, 0.039994504, 0.007511236, 0.027204087, 0.019233607, -0.004394447, 0.024866099, -0.007306895, 0.014896757, -0.009762409, 0.022133932, 0.016091634, -0.019404411, 0.018953569, 0.049864873, 0.037917517, 0.020948466, 0.019478556, -0.024680819, 0.001261163, -0.005961756, 0.016525013, -0.001475005, 0.028320443, -0.013435971, -0.028985953 };

// bproj_all_ref, numel=32
float bproj_all_ref[] = { 0.000000000, 0.000000000, 0.000000000, 0.000000000, 0.000000000, 0.000000000, 0.000000000, 0.000000000, 0.000000000, 0.000000000, 0.000000000, 0.000000000, 0.000000000, 0.000000000, 0.000000000, 0.000000000, 0.000000000, 0.000000000, 0.000000000, 0.000000000, 0.000000000, 0.000000000, 0.000000000, 0.000000000, 0.000000000, 0.000000000, 0.000000000, 0.000000000, 0.000000000, 0.000000000, 0.000000000, 0.000000000 };

// Wfc_all_ref, numel=2048
float Wfc_all_ref[] = { 0.011475972, -0.011625175, 0.000035497, -0.014124939, 0.004193205, 0.016578358, 0.015560549, -0.016139708, 0.009952379, -0.034218814, -0.017203193, 0.008410417, 0.019689718, -0.002341995, -0.025542369, -0.009417104, 0.017251359, 0.006981793, 0.013657574, 0.002046104, 0.019397557, -0.008677017, -0.010154865, 0.032297399, -0.001936741, -0.010189918, 0.013804271, 0.018369058, -0.038604848, 0.015472757, -0.008095375, 0.019095067, -0.007639381, 0.007985502, 0.005159948, -0.019642394, -0.007936313, 0.003164090, -0.020784482, -0.007421046, 0.006110948, -0.002446159, 0.003101951, 0.001616041, -0.007712082, -0.012084767, 0.013069266, 0.010190235, 0.020358430, -0.000227932, -0.028239509, 0.016935190, -0.007206545, 0.016959047, -0.003792101, 0.013870296, 0.028761711, 0.055866722, 0.003213104, 0.001429610, -0.010551636, -0.002466935, -0.007341758, 0.002178055, -0.025952717, -0.017494900, -0.003312404, 0.018084198, 0.010575101, -0.010432990, 0.010782591, -0.007259290, 0.031259328, 0.026763359, 0.002939021, -0.038983360, 0.000949401, 0.018793000, -0.002460830, 0.014340652, 0.031395935, 0.012978519, -0.011079784, -0.026485564, 0.033418428, 0.006075849, -0.007306534, 0.014884159, -0.010482333, 0.011411507, 0.039751038, 0.015822781, -0.006842820, -0.018513368, 0.041189227, -0.007414747, -0.042119797, 0.008688048, -0.000916567, -0.029304739, 0.003212147, -0.028341193, 0.020628667, -0.006245351, -0.004024538, -0.005355173, 0.004399728, -0.035074946, 0.013939517, -0.004873692, 0.006247775, -0.005355859, -0.006836872, 0.025721643, 0.017865231, 0.027710130, 0.015035626, -0.007927937, 0.017263873, 0.041601952, 0.004553711, -0.024550831, 0.025658935, 0.034978420, -0.007566380, -0.001966594, -0.019077102, -0.015911838, 0.023573317, 0.014401318, 0.024061408, 0.000930725, 0.001120780, 0.015345574, 0.017780170, 0.021509273, 0.011480284, 0.017855922, -0.012691124, -0.016702054, 0.003319062, 0.016432239, 0.004862809, -0.045651406, -0.013796140, 0.002638134, 0.020212535, -0.006130366, -0.001938907, 0.020094449, -0.019551620, 0.015490090, -0.013317455, -0.008556469, 0.008860628, 0.023949632, -0.003696352, 0.009450397, 0.011906086, 0.026976394, -0.040868070, -0.011161071, -0.009251881, 0.014820741, -0.004077390, -0.038621534, -0.023924381, -0.048578281, 0.031908046, -0.013930160, -0.023645354, -0.004274572, 0.003258745, 0.026273387, -0.012787132, -0.001867616, 0.023274723, -0.025776507, 0.012138585, -0.003162801, 0.000346144, -0.012684792, 0.009327386, 0.003707704, -0.013995524, -0.005097445, -0.014638562, 0.018383440, 0.013511450, 0.011588115, -0.016922686, -0.058062732, -0.037229724, 0.010660980, 0.010413921, 0.027013458, -0.021963675, -0.035105556, 0.005175647, 0.010241800, -0.032606732, 0.016730910, 0.006435650, 0.007355867, 0.024548976, -0.024730191, 0.009970585, -0.012805328, 0.006580336, -0.004575875, 0.023332873, 0.011386211, 0.022775430, 0.005405498, -0.003259284, 0.009352937, -0.022511389, -0.003246771, -0.020420786, 0.039779127, -0.034286108, -0.046013165, -0.012010494, 0.036798187, -0.050015286, -0.010179828, -0.019717859, 0.004455785, 0.029520378, -0.034904655, 0.000272127, -0.006570104, 0.013504378, -0.006196153, 0.002491388, 0.025850432, -0.006800686, -0.006717436, -0.009741368, -0.014246038, 0.042155743, 0.011834457, -0.022452656, -0.005143244, 0.016964993, -0.036535610, 0.027548920, -0.043963287, 0.023800060, -0.012680101, 0.049500015, -0.019417411, -0.008811448, -0.001847606, 0.013915524, 0.011015816, -0.019563569, 0.002330946, -0.029592823, -0.009632067, 0.023323931, -0.002617839, -0.023311401, 0.012037160, 0.032743789, 0.018931268, -0.010806452, -0.003538547, -0.001172502, 0.000912188, -0.004056864, -0.016139014, 0.016609762, 0.003618634, -0.032715905, -0.009552049, -0.033382881, 0.013127145, 0.007012713, 0.006874381, -0.019106375, -0.014459808, -0.030160820, 0.020117180, 0.005259552, 0.014363544, -0.037781738, -0.010849145, 0.010141662, 0.017004307, 0.002393473, -0.038593698, 0.007386457, 0.015129879, -0.030564897, -0.018360641, -0.011000752, -0.048096683, 0.015516647, -0.011396497, -0.001982844, -0.006815397, -0.002265888, 0.001940938, 0.013204635, 0.003311540, 0.013642210, 0.003292969, -0.012286767, -0.028320335, 0.007730720, -0.024306571, -0.042178873, 0.034352716, -0.000059560, 0.031730693, -0.026396958, -0.004501323, 0.021889949, 0.022990620, -0.020083217, 0.001515573, -0.029116182, 0.003761319, 0.008016936, -0.002880278, 0.009718215, -0.001542342, -0.000033795, 0.009694088, -0.011959909, -0.009027838, 0.003451059, -0.011666064, -0.005945587, -0.021253794, -0.014436093, -0.025545690, -0.030352933, -0.023959871, -0.006973912, 0.007614423, -0.018892812, 0.012948936, -0.006200453, -0.000174059, 0.000520786, 0.053105887, -0.024296097, -0.015001289, 0.003330517, -0.016302377, -0.032789756, 0.006094416, -0.008773983, -0.003995692, 0.016983718, -0.022531373, 0.041731510, 0.018976368, -0.002663341, 0.008235426, -0.023272600, -0.034233075, -0.021898214, -0.026503589, -0.003537527, 0.015392764, 0.006891681, -0.019221652, -0.003818958, -0.013793887, 0.022521464, 0.002994830, -0.018719481, -0.011774202, -0.003831528, -0.018201055, -0.006703192, -0.024044449, -0.009518800, -0.008018687, -0.010160916, -0.003407745, -0.020201495, 0.016847525, 0.018595388, -0.008515192, 0.021724161, 0.004401827, -0.007465070, -0.040104236, 0.005764191, -0.013913109, -0.020410839, -0.003781313, 0.011155832, 0.001213776, -0.007259491, 0.001208180, -0.021716731, 0.019453330, -0.002157342, 0.010601572, -0.014765929, 0.005427018, -0.017138250, 0.007149215, 0.000253946, 0.015797436, -0.011628893, -0.012243490, 0.009517631, -0.011704412, 0.024147071, -0.011377331, -0.001464778, -0.000285222, 0.016691625, 0.010826496, 0.021484854, 0.012123057, -0.025719544, -0.016088566, -0.000648250, -0.026421202, -0.011543642, 0.028813606, -0.018387483, -0.030322906, -0.023297502, 0.014020296, 0.024630489, -0.022576932, 0.017473532, -0.009322066, -0.029412733, 0.006820239, -0.012010719, 0.014680813, -0.015339291, 0.016300125, 0.006680544, -0.022768747, -0.006786268, -0.000943686, -0.009422150, -0.039533120, 0.013865637, -0.019282162, 0.022692008, 0.001693643, -0.009394421, 0.004011913, -0.007140999, -0.008957380, -0.026413973, 0.045316916, -0.022025825, -0.025020294, 0.014079208, 0.017672619, 0.004391927, -0.009092888, 0.008853168, 0.012506976, 0.028962733, -0.008542948, -0.001053478, -0.007998305, 0.013774043, 0.004863504, 0.015306926, 0.045308758, 0.024527898, -0.007306631, 0.027454946, -0.013049433, 0.015832104, -0.005186312, -0.017149640, 0.019587690, 0.025878832, 0.007715453, 0.003915058, 0.002998812, 0.021026278, -0.010745012, 0.005084209, 0.025170362, -0.028145369, 0.028472258, 0.004732212, -0.034221765, -0.002727426, 0.009325342, 0.013600177, 0.011184327, 0.016963443, -0.006348728, -0.003405049, -0.006985722, -0.000867003, -0.017459378, 0.010662064, 0.046961982, 0.035431430, 0.014147922, -0.028435042, -0.027447404, 0.036227718, 0.033449493, 0.012332312, 0.016773155, 0.021997308, -0.004423420, -0.001257919, 0.000424160, -0.000365217, -0.001071970, -0.032089401, -0.010558586, -0.020595536, 0.039038807, 0.015746627, -0.007048754, 0.028715458, -0.011684828, 0.008930811, -0.017291594, -0.001290960, -0.031378511, -0.020628378, 0.001493196, 0.033389390, -0.008223419, -0.000462725, -0.010812168, 0.019991584, 0.005641606, -0.002931681, -0.002678544, 0.004426541, -0.001519679, 0.011515426, 0.009648078, 0.042499047, -0.019328650, -0.003409780, -0.038397759, -0.020461129, 0.026528515, -0.005889092, 0.020784982, 0.015944669, 0.000867359, 0.002930094, 0.001671238, -0.014649992, 0.021589920, 0.014721175, -0.011026429, -0.003257600, 0.021158338, -0.030034188, -0.023702243, 0.037174068, 0.004691876, 0.034247275, -0.036985755, 0.038252011, -0.004890893, 0.004510817, -0.038566034, 0.002281461, 0.021413727, 0.044803604, 0.009580970, -0.007154759, -0.019637683, 0.002827042, -0.020937353, 0.043942649, 0.008165890, 0.000653009, -0.007285219, -0.010795753, 0.041534409, 0.010340572, -0.003210531, -0.023113187, 0.018030155, 0.003525921, 0.022125235, 0.040547498, 0.028962810, 0.004837380, -0.003813646, 0.002446051, 0.035292707, -0.010047548, 0.025524294, -0.000267430, -0.039869308, 0.007081799, 0.008322014, 0.007060740, -0.005970036, 0.012149973, -0.011950681, 0.005109333, -0.027962454, 0.016405670, 0.024460496, -0.008146094, 0.025000043, -0.036438026, 0.012430587, -0.030864708, 0.006251269, -0.036363028, 0.038928866, -0.011953695, -0.006060967, -0.012862618, 0.037300609, 0.023350317, 0.007941788, 0.005728347, -0.000485295, -0.009832460, -0.007513621, 0.017146591, 0.018857094, -0.041437663, -0.006281216, -0.029652931, 0.022469250, 0.002561453, 0.003611834, -0.022501532, 0.010578863, 0.004269339, -0.000141807, 0.006417076, -0.002836032, -0.026637457, -0.020035041, 0.002747013, 0.057282925, -0.003609523, 0.039782241, 0.015866991, -0.007337019, -0.007007653, 0.008775528, 0.023905775, 0.006757138, -0.022595696, -0.002376564, -0.042074136, 0.001490034, -0.036627527, -0.024414407, 0.016102996, 0.016741352, -0.002971401, -0.016030004, -0.001605193, -0.002423922, 0.008066255, -0.005314325, -0.010689618, -0.002466710, -0.022533417, 0.005990439, 0.005409007, -0.020719413, -0.021899611, -0.018317895, -0.030743526, -0.050131682, -0.008767099, 0.015404950, -0.036471333, -0.003064758, -0.019971907, -0.039047521, 0.029695418, -0.005652186, -0.010158046, 0.006320158, 0.004409646, 0.007515237, -0.032787357, 0.048411507, -0.022973265, -0.005807132, -0.043039672, 0.004518197, 0.041105814, -0.014351360, 0.021181749, 0.001769583, -0.026332054, -0.006999107, -0.000128235, 0.005590478, 0.000646574, 0.018290523, 0.001547658, 0.003406367, 0.012998483, 0.026494080, -0.012710215, -0.017874254, 0.022591004, 0.027347075, -0.008748625, 0.012122589, -0.017175900, 0.004002177, -0.015917096, 0.012348405, 0.010709856, -0.043388594, -0.022073472, -0.019811172, -0.039056227, 0.022909891, -0.002891053, -0.001928211, 0.015932936, -0.021660276, 0.001882241, 0.016001957, -0.046989311, 0.005039735, -0.008369562, -0.012096665, 0.015751703, 0.029969638, 0.013553692, -0.017387746, -0.027535936, 0.006328062, 0.009586844, -0.024861015, 0.000846442, 0.028768269, 0.029738499, 0.020839086, 0.020983621, 0.013879959, 0.012157969, -0.027810790, 0.010928662, 0.012716745, -0.005292738, 0.001509802, -0.020573337, -0.024602160, -0.002552011, 0.015603909, -0.014452918, -0.040529974, -0.005896337, 0.002357276, -0.021597778, 0.021673901, 0.005292208, -0.019911656, 0.019382263, 0.007129131, 0.005118032, 0.003975851, 0.013331119, -0.021798253, 0.004853013, 0.017806794, 0.032329291, 0.008886521, -0.035922669, -0.013502414, -0.038777232, -0.009475672, 0.029891720, 0.003620323, 0.045638312, -0.013860340, 0.000493564, -0.012461131, -0.006529616, 0.010023423, -0.016748551, 0.031821892, 0.000961725, -0.032287978, 0.020570016, 0.014196373, 0.034455243, -0.014640220, -0.010235953, -0.048701134, 0.019953182, -0.030674862, 0.024335146, -0.013285518, 0.005993857, -0.020210857, -0.015136426, -0.030676447, 0.007333284, 0.008431669, -0.002101021, -0.016118640, -0.004843160, 0.024935979, 0.005347283, -0.021757599, 0.011638579, 0.027409561, -0.001491090, 0.028991103, -0.008819165, 0.017480997, 0.002731379, 0.029019505, 0.022012293, -0.022877917, 0.022079846, -0.005919839, -0.006301769, -0.023094028, -0.022205617, 0.003322458, -0.007079261, -0.014399088, -0.003011295, -0.046649884, 0.021182727, 0.039904829, -0.032037552, 0.043116521, -0.004699443, -0.009767784, -0.005144428, 0.009022849, -0.020505866, -0.014102574, -0.000133680, -0.013342194, 0.011184275, -0.009142188, 0.003860333, -0.010435531, 0.006713185, 0.035071280, 0.017735228, -0.014778940, -0.022236206, 0.044685107, -0.004756960, 0.017769221, 0.018365975, 0.005015095, -0.037370484, -0.007200782, -0.000347502, -0.002256614, 0.002255059, -0.013840826, -0.022764100, -0.019018719, 0.020232501, -0.002684515, 0.038793929, -0.004015255, -0.029761588, -0.019941371, -0.024730999, -0.007245142, -0.006461806, -0.014400778, 0.029833304, -0.025236679, -0.017381605, -0.012460808, -0.001042165, -0.031316139, -0.004379102, 0.024108293, 0.000650179, -0.001332944, -0.049307030, -0.012656568, -0.016263619, 0.006657441, -0.009680315, -0.017441977, 0.005670109, -0.015285815, 0.006357041, -0.006049680, -0.004754876, -0.009663535, -0.016224161, -0.015510837, 0.002866906, -0.002153646, 0.007886755, 0.015993569, -0.026730644, 0.008974288, 0.000930129, -0.013359277, 0.025832269, 0.018004162, -0.016855411, 0.028563635, -0.006647333, -0.050796688, -0.010448669, 0.025259882, 0.033988815, -0.033442013, -0.017617060, -0.019111002, 0.012107139, -0.004330464, -0.012089424, 0.000720265, 0.041455273, -0.014998332, 0.002168156, 0.006734890, 0.008289918, -0.004026129, 0.006123133, 0.008799879, 0.025089446, 0.037510313, 0.011707617, 0.004537459, 0.000934805, -0.006548034, 0.011161783, 0.027099987, 0.004008000, 0.014323371, 0.018613685, 0.008314464, 0.005275637, 0.045818642, 0.004126132, -0.018311227, -0.015564991, -0.012021446, -0.029569890, 0.000015483, 0.019584885, 0.002789389, 0.013584738, -0.010597455, 0.015076341, 0.001339034, 0.013450828, 0.011738833, -0.017101130, -0.007565784, -0.000597659, 0.004389524, -0.025118303, -0.005999086, 0.011880327, 0.012673982, 0.014775750, -0.016371457, -0.010996706, -0.027484009, 0.023579529, -0.003078843, -0.009553982, -0.019463303, 0.018312031, 0.007371888, 0.023693105, -0.007828704, -0.029203637, 0.000246686, 0.040572852, 0.005294305, 0.017957883, -0.033735659, 0.028059088, 0.002126539, -0.025542749, -0.003046232, 0.005987240, -0.013998484, 0.003363464, -0.039470367, 0.035682667, 0.007390839, 0.011882017, 0.004259094, 0.012243094, 0.018786419, -0.042808011, 0.003348405, -0.033639286, -0.000784833, 0.025817458, 0.001405238, -0.012465417, -0.001818171, 0.001149990, -0.004422151, 0.023876317, 0.002627427, -0.029271854, 0.023857487, -0.009185814, -0.017684916, -0.012110106, -0.013734311, -0.028944114, 0.015587785, 0.014649239, 0.050073519, 0.006374361, 0.005076895, -0.016039567, 0.047696918, -0.025910892, -0.000418122, 0.013932855, -0.022645695, 0.014828165, -0.011200804, -0.002141024, -0.010746372, -0.003419071, -0.012601227, 0.029374382, -0.029068235, -0.013889547, -0.000733999, 0.001293375, 0.000238602, -0.012760853, -0.002502154, 0.014763736, -0.004835545, -0.003878403, 0.012722835, -0.021873835, 0.007177861, -0.023490431, -0.009351396, -0.011634229, 0.014937976, -0.004025680, 0.055049658, -0.029919511, 0.021378407, 0.018142356, 0.012801415, 0.034148809, 0.004891406, -0.021592993, -0.035189662, -0.004816442, -0.009588681, 0.001079421, 0.001999803, -0.003648186, -0.019094491, 0.000298718, 0.013245932, -0.006877153, -0.076364495, -0.010257930, -0.001764343, -0.014084271, -0.027834324, 0.020402670, -0.023946093, 0.012964849, -0.006122880, 0.012783747, 0.009271685, -0.021567881, -0.011557469, 0.036778022, 0.001705824, 0.008862531, -0.010470144, 0.001501891, -0.018740300, 0.010258672, 0.040547732, 0.009080418, -0.032289263, 0.025532776, -0.038299892, 0.008746400, -0.001396227, -0.024954880, 0.016506357, 0.012859757, -0.007182933, -0.010547780, 0.004695399, -0.015922826, 0.007046553, 0.019019444, -0.002415701, 0.034655973, -0.023852274, 0.039932650, 0.007818951, 0.005283660, -0.004385898, -0.048347443, 0.024332490, 0.004960341, 0.021239052, 0.002542049, 0.003725448, 0.002487654, -0.020581674, -0.011766894, -0.019604184, 0.035070110, -0.008636177, 0.000109419, 0.008028650, -0.008228108, -0.016301334, -0.038277566, -0.007935789, -0.016083550, 0.015766909, -0.014496588, 0.042223677, -0.023002023, -0.019082682, 0.008971281, -0.025267793, -0.017309878, 0.041172899, -0.034191824, 0.013321606, 0.016100569, 0.015714560, 0.032711979, 0.002833373, -0.016867608, 0.040722955, -0.002732243, 0.012688399, -0.030145528, 0.022494653, 0.012150993, 0.024005694, 0.030679099, 0.005378529, -0.007778667, -0.030253977, 0.013396855, 0.017650856, -0.015198193, -0.018704889, -0.027008789, -0.019761454, 0.022774901, -0.004215036, -0.017847436, 0.022809939, 0.029738223, -0.023262680, -0.047403421, 0.002119464, -0.047927383, 0.015049875, 0.009817564, 0.002074331, -0.012602881, -0.015163175, -0.019261805, -0.016905652, 0.036055110, 0.012654426, 0.008809230, 0.006000550, -0.037272196, -0.003342452, 0.004601737, 0.009661039, -0.004286059, -0.007585047, 0.034519650, -0.010512266, 0.006373307, 0.012200594, 0.007131720, 0.013873547, -0.008521985, 0.000209112, -0.003748887, -0.001299292, 0.005901160, 0.007780209, 0.004936790, -0.034486063, -0.001173959, -0.006564950, 0.025153985, -0.030516885, 0.009619328, 0.017879605, 0.014218105, -0.007314435, 0.022588290, -0.004816819, 0.049635343, 0.004799965, -0.015881259, -0.026027622, -0.004146259, -0.036675360, 0.018666882, 0.033779424, -0.013811781, 0.011243436, 0.028543701, 0.025482628, -0.001980792, 0.047865536, 0.031932488, -0.007588305, 0.049441516, -0.007551881, -0.038596805, -0.016987618, -0.014442425, 0.024297528, 0.027748473, 0.029104084, 0.007816325, -0.001144740, -0.032045934, -0.013349487, 0.027746061, -0.003760012, -0.031655490, -0.006658178, 0.007541621, 0.024712097, 0.011725577, -0.016012803, -0.005797180, 0.037345216, 0.031162368, -0.017855674, -0.013652641, 0.022879312, 0.007626065, 0.017850099, 0.025615098, -0.023340140, 0.012089334, -0.006805721, 0.028015787, -0.020047532, -0.032868229, -0.000382505, -0.026385473, -0.003168135, 0.017082581, -0.010276820, -0.001250651, -0.010708873, -0.007496185, -0.001290629, 0.030530350, 0.007642338, 0.009470013, -0.000981688, 0.042906523, 0.014536215, -0.016292980, -0.015226779, 0.018707193, -0.025576815, 0.001665148, -0.036961358, 0.029354235, 0.013959449, 0.023809429, -0.027398860, -0.007326995, 0.007825698, 0.028419938, -0.034310888, -0.023835527, 0.045377798, -0.014944892, -0.011038963, -0.033695374, 0.010027600, 0.004849159, 0.032428510, -0.013164666, 0.013991442, 0.042001210, 0.003053843, -0.024052743, 0.030337444, -0.006289119, 0.007648614, 0.023955591, 0.054476991, -0.001648336, 0.003338934, -0.012540247, -0.002101296, 0.025111802, -0.000580019, 0.006286370, -0.015516202, -0.009845419, -0.015925722, -0.001244722, 0.002847004, -0.000450454, 0.011879581, -0.022778161, -0.006465374, 0.007541392, 0.004428576, 0.021701891, -0.029038472, 0.019048991, 0.028528431, 0.010806723, 0.017671112, -0.026422333, -0.010909755, 0.006710169, -0.005110764, -0.018168744, -0.020846268, -0.027642336, -0.023006324, -0.041861735, -0.033597596, -0.001503050, -0.036840819, 0.013025152, -0.014120298, 0.018467098, 0.014463842, 0.003120304, 0.009692898, 0.021245444, 0.024616670, 0.007442090, 0.005485254, -0.022923676, 0.004191475, -0.008101992, -0.010607588, 0.038736127, -0.002155779, -0.015272495, -0.007853988, 0.000867775, 0.003706074, 0.005137071, -0.005310504, 0.040115014, 0.024322957, 0.009147341, -0.032548249, -0.034473900, 0.010415235, 0.018557671, 0.009226373, -0.002549139, -0.023288855, 0.041011252, -0.011162338, 0.012997931, -0.004544273, 0.003733250, -0.039067380, -0.014926276, -0.007169813, 0.028876401, -0.014592128, -0.021617165, 0.023202125, 0.039653569, -0.007715581, -0.003341209, 0.043863401, -0.008537361, 0.021518027, 0.016943455, -0.003891457, 0.008740427, -0.003283451, -0.000479143, 0.006278367, -0.014284224, 0.000248430, 0.012017498, 0.021661911, -0.002563561, -0.009629600, 0.005131500, -0.001355106, -0.012692207, 0.021537507, -0.004292558, -0.029644106, 0.021680005, 0.028191721, 0.049677100, -0.018370360, -0.003169197, 0.025687344, -0.018328128, 0.013150004, -0.020594336, -0.014408537, -0.024039997, -0.050040968, 0.042327419, 0.027992439, -0.018328810, -0.027830092, 0.041402247, -0.012638655, -0.009845019, 0.000417792, -0.012842542, 0.003085297, 0.038420312, 0.028753480, 0.025470397, -0.024681525, 0.005837541, 0.001431200, 0.014993324, -0.006661271, 0.010908396, -0.013415077, -0.019683089, 0.011277420, -0.030027663, -0.041801296, 0.004566446, 0.003910671, -0.035843257, -0.024973055, 0.019167328, -0.022024762, 0.041064434, 0.000418351, 0.020189077, 0.011340135, -0.012500875, 0.020731138, -0.036933586, -0.024654428, 0.019276150, -0.004416841, 0.012940259, 0.022544257, -0.041395616, -0.022063408, 0.019438380, -0.000950645, -0.006031182, 0.030371806, -0.023589075, 0.028800856, 0.004740627, -0.020002017, 0.003545005, -0.024309780, -0.001918284, -0.001794991, 0.011646654, -0.020023204, 0.003904510, -0.021820882, -0.046549924, 0.021958172, 0.020621078, 0.012212238, -0.018702865, 0.039624780, -0.007049849, -0.006021396, -0.014735045, -0.029318256, 0.040913891, -0.021462657, -0.007801968, -0.009105742, 0.014253609, 0.031296600, -0.004218426, -0.020459516, 0.017189933, -0.006987264, -0.026731769, -0.016972682, -0.000133545, -0.002241494, -0.005639829, 0.021388421, 0.000296992, -0.005492541, -0.004496618, -0.046254959, -0.021916587, 0.014421953, -0.030698648, -0.011917532, 0.031214634, 0.022780711, 0.001174036, -0.007153180, 0.017892620, 0.000035266, -0.029274797, 0.020630751, -0.024276461, 0.014994235, 0.001917872, -0.029320737, -0.016731776, -0.016822135, -0.012119967, -0.008087131, 0.012941374, 0.025403857, -0.005949402, 0.009449929, 0.006153344, 0.004287963, 0.028343271, -0.054574557, 0.029303597, -0.001100326, -0.022732848, -0.022191126, -0.004938019, -0.039733104, 0.021918843, 0.015374593, 0.001172540, 0.048141733, -0.002421923, -0.010101539, 0.007625583, 0.011822813, 0.005966300, -0.009118631, 0.013589157, -0.014749512, 0.031442467, -0.023294840, -0.034930553, 0.024940901, 0.010235484, -0.011906684, 0.014502290, -0.014569756, -0.003662859, -0.010067990, 0.000164669, -0.012773571, 0.041987050, -0.000632431, -0.023374872, 0.016991584, -0.027806668, -0.007243930, 0.001826848, 0.015147969, 0.014576263, -0.029317481, 0.015022142, -0.028456025, -0.040748179, -0.009063552, 0.030766616, 0.007601275, -0.012455128, -0.018498441, -0.001309465, 0.016592659, 0.007576139, -0.011657692, 0.012551450, 0.003515615, 0.020017242, -0.000681759, 0.009644046, -0.017168356, 0.007508290, 0.010071271, 0.014441635, 0.060432110, 0.022140428, 0.016424062, 0.013503358, -0.023215201, -0.022797808, 0.006781561, -0.010167259, -0.027445912, -0.006175900, 0.028107252, 0.004450671, 0.004942403, -0.009807353, -0.026156548, -0.003491245, -0.013778942, -0.020276990, 0.003856406, -0.005722940, 0.020051116, -0.019406991, 0.007092238, -0.009854966, -0.012181628, 0.024894547, -0.003359787, -0.034532644, -0.012510152, -0.005866393, -0.008049144, 0.015673513, 0.004525964, 0.009176467, 0.006419691, 0.027713438, 0.022635477, -0.023012552, 0.005602063, -0.001397924, 0.022298099, 0.003525076, 0.014156330, -0.006811919, 0.015194873, -0.001469688, -0.016057581, -0.025261628, -0.020731810, 0.025221778, -0.013081190, 0.018421257, -0.042446040, 0.004461420, -0.023048278, 0.003574174, -0.019134810, 0.015536130, -0.003677001, 0.019094434, -0.003039226, 0.020498022, -0.009266430, 0.032955881, 0.018675771, -0.014644268, 0.035210405, -0.028709337, -0.001330001, -0.011860307, -0.025988871, 0.005281878, 0.008684950, -0.012365947, 0.021284454, 0.010288321, -0.012253549, 0.012191685, 0.003207377, -0.013713242, -0.000244210, -0.000832901, 0.013213072, -0.010202442, -0.021662574, -0.011197380, -0.020843113, 0.007964480, 0.043997612, -0.013885379, -0.012042264, 0.040043157, -0.019148337, -0.009020192, -0.006425373, -0.026288066, -0.002269775, 0.013588047, 0.029609624, -0.037560601, 0.010176137, 0.002428651, 0.022359997, -0.011072536, 0.011610551, 0.018855954, -0.020681795, -0.015174909, -0.011332756, 0.014190812, 0.002830134, -0.023262279, -0.009472675, -0.009702565, -0.008501300, -0.012057884, 0.025282642, -0.008524388, -0.019668806, -0.057560004, -0.008599841, 0.007927503, 0.048121441, -0.042263243, -0.028357953, 0.002744890, 0.001912779, 0.022329146, 0.022896297, -0.022629218, -0.013043506, -0.031543296, -0.019114079, 0.017162500, -0.000663195, 0.047373913, -0.014527078, -0.000397828, -0.031147888, 0.017827369, -0.000303181, -0.028588511, 0.018454475, 0.002072320, -0.017159579, 0.017851925, -0.003862533, 0.026449351, 0.015729131, 0.008031579, 0.014743581, -0.019222876, 0.029736264, -0.021014659, -0.027880765, 0.044932611, -0.000224265, 0.023376612, 0.003706501, -0.011512475, 0.017707622, -0.029121971, -0.001823741, -0.010788101, 0.017659469, 0.009080218, 0.011017816, 0.013338922, 0.023330538, -0.009823673, -0.002179752, 0.032528277, -0.007222016, -0.017923843, 0.001818896, 0.020991959, 0.006067263, 0.016298205, 0.005111954, -0.003354694, -0.001968889, -0.002277780, -0.011648891, 0.011260254, 0.021246776, -0.022116220, 0.003560983, 0.017258594, -0.056979537, -0.002554761, 0.012839854, -0.010428280, 0.000680653, 0.000753980, 0.022495110, 0.005531351, -0.033073355, 0.026118921, -0.013857144, -0.032256253, 0.026445672, -0.025953783, -0.001432147, 0.003160040, 0.021005766, 0.020260623, -0.023414696, -0.011863487, 0.014733377, 0.015729031, 0.017035661, 0.040087689, -0.038946155, 0.005885463, 0.011749698, -0.002723092, -0.003015447, 0.018167317, 0.017691845, -0.006078018, -0.003489618, 0.019142121, -0.024982421, -0.013774592, -0.034702454, 0.013188028, -0.005058196, 0.035450704, -0.035528649, 0.021010675, 0.008063463, -0.015904287, 0.005684012, 0.009150790, 0.006595603, -0.019715752, 0.002236382, -0.022945100, 0.006214871, -0.005045830, 0.036906201, 0.014378930, -0.034468357, -0.023769286, 0.004468157, -0.004699807, -0.043226734, 0.024233429, 0.016214190, 0.016776925, 0.038483832, -0.022984231, 0.040801495, 0.003397834, 0.005571736, -0.015770204, -0.003916389, 0.000637567, 0.011243051, 0.010558669, 0.013958777, 0.023296963, 0.008743905, 0.005706267, -0.005454881, 0.026022853, 0.010678898, -0.005296262, 0.029522335, -0.000705678, -0.019027730, 0.021945266, -0.004376407, -0.024700960, -0.003498489, -0.014411766, -0.036687281, 0.008914901, 0.006695927, 0.031188950, 0.007047524, 0.009990280, -0.006741279, 0.019312229, 0.001331190, -0.029400358, -0.021297013, 0.010041570, -0.011500309, 0.003063474, -0.018783992, 0.005119152, 0.026093077, -0.041958611, 0.011659912, -0.005617664, -0.016270675, -0.016305394, -0.006489375, 0.036998544, 0.026002321, 0.030147694, 0.002484631, -0.035722349, 0.036225371, -0.005034094, -0.032534163, -0.017973928, 0.004328536, -0.012797786, -0.042602785, -0.012367223, -0.018179903, 0.025946688, -0.008092522, -0.008970871, 0.017000683, 0.005671930, 0.024893574, -0.003138844, -0.014729046, 0.037624810, 0.014731026, -0.005310847, 0.003213895, -0.017011266, -0.004500589, -0.053520314, 0.006714398, 0.056970347, -0.014772686, 0.039192460, 0.010609913, -0.000945494, 0.022566713, 0.012368863, 0.009178622, 0.005791435, 0.004549148, 0.022384789, -0.008937410, -0.018096166, 0.008148918, -0.017602945, 0.007839150, 0.008460541, -0.015780052, 0.026868975, 0.015772341, -0.035570536, -0.029624056, -0.034585893, 0.027001036, -0.011524573, 0.008362136, 0.009325576, 0.040469635, -0.000994858, 0.007869646, 0.002752617, -0.002831013, -0.010854170, -0.004730329, 0.008709830, -0.013960497, 0.006223448, 0.018056557, -0.015212085, -0.011772956, 0.030360188, 0.010346466, 0.010282442, 0.009930455, -0.004735597, -0.009029337, 0.048665762, 0.007188673, 0.028942190, 0.042655043, 0.000076557, -0.019833831, 0.011347246, -0.032351330, 0.009952242, -0.009412351, 0.013090936, 0.018008880, -0.036459222, 0.010460664, -0.009782118, 0.012749190, -0.023122609, -0.013613950, -0.026511898, 0.021937162, 0.013917490, 0.007473076, -0.000072512, -0.018948277, 0.020001885, -0.013357351, -0.032605100, -0.016746871, 0.001486434, 0.023575598, -0.003764339, -0.009838038, -0.002312629, -0.018143365, 0.000222712, 0.010269603, 0.012529032, 0.008501318, 0.028175857, 0.019242849, 0.051072892, 0.010255811, -0.005508219, -0.027771210, -0.031223614, 0.047780063, -0.002986774, 0.048109710, 0.024566110, -0.005755774, 0.028647440, -0.039519086, -0.000371658, 0.013540329 };

// bfc_all_ref, numel=128
float bfc_all_ref[] = { 0.000000000, 0.000000000, 0.000000000, 0.000000000, 0.000000000, 0.000000000, 0.000000000, 0.000000000, 0.000000000, 0.000000000, 0.000000000, 0.000000000, 0.000000000, 0.000000000, 0.000000000, 0.000000000, 0.000000000, 0.000000000, 0.000000000, 0.000000000, 0.000000000, 0.000000000, 0.000000000, 0.000000000, 0.000000000, 0.000000000, 0.000000000, 0.000000000, 0.000000000, 0.000000000, 0.000000000, 0.000000000, 0.000000000, 0.000000000, 0.000000000, 0.000000000, 0.000000000, 0.000000000, 0.000000000, 0.000000000, 0.000000000, 0.000000000, 0.000000000, 0.000000000, 0.000000000, 0.000000000, 0.000000000, 0.000000000, 0.000000000, 0.000000000, 0.000000000, 0.000000000, 0.000000000, 0.000000000, 0.000000000, 0.000000000, 0.000000000, 0.000000000, 0.000000000, 0.000000000, 0.000000000, 0.000000000, 0.000000000, 0.000000000, 0.000000000, 0.000000000, 0.000000000, 0.000000000, 0.000000000, 0.000000000, 0.000000000, 0.000000000, 0.000000000, 0.000000000, 0.000000000, 0.000000000, 0.000000000, 0.000000000, 0.000000000, 0.000000000, 0.000000000, 0.000000000, 0.000000000, 0.000000000, 0.000000000, 0.000000000, 0.000000000, 0.000000000, 0.000000000, 0.000000000, 0.000000000, 0.000000000, 0.000000000, 0.000000000, 0.000000000, 0.000000000, 0.000000000, 0.000000000, 0.000000000, 0.000000000, 0.000000000, 0.000000000, 0.000000000, 0.000000000, 0.000000000, 0.000000000, 0.000000000, 0.000000000, 0.000000000, 0.000000000, 0.000000000, 0.000000000, 0.000000000, 0.000000000, 0.000000000, 0.000000000, 0.000000000, 0.000000000, 0.000000000, 0.000000000, 0.000000000, 0.000000000, 0.000000000, 0.000000000, 0.000000000, 0.000000000, 0.000000000, 0.000000000 };

// Wproj_mlp_all_ref, numel=2048
float Wproj_mlp_all_ref[] = { 0.014474427, 0.006394069, -0.002765248, -0.007873449, -0.003930657, 0.009346717, 0.000425769, -0.005518361, 0.009608688, -0.006003655, 0.001698277, -0.007278715, -0.014047465, -0.000550352, -0.017816408, -0.004424436, -0.008670221, -0.015880810, 0.002257005, 0.006905536, 0.002064989, 0.011778624, 0.006799405, 0.015398073, 0.015424609, -0.001704875, -0.014090629, 0.008455167, 0.000655168, 0.006838865, -0.009247237, 0.002087367, 0.012019500, -0.003394769, 0.017804084, 0.001200990, -0.021189949, -0.005261034, -0.004927751, 0.010035583, -0.012702293, 0.015333228, 0.008432291, -0.005386842, 0.006313015, -0.004355673, 0.016359745, 0.000160100, 0.006823525, 0.006827464, -0.005667879, 0.006374315, 0.006846041, 0.012511886, 0.010473869, -0.007947894, 0.002745440, -0.008675715, -0.003027324, -0.014964127, -0.014034327, -0.002278229, -0.016494503, -0.001277224, 0.000328976, 0.005241516, -0.014013488, 0.000358369, 0.005766253, -0.012272856, 0.022368571, 0.030430917, 0.007150951, -0.000894822, -0.001125382, 0.015938802, -0.003401373, 0.024272827, 0.003139296, 0.004227580, -0.006851001, -0.016241999, 0.004297436, 0.003404811, -0.006842890, 0.000448700, -0.011019507, -0.000456038, 0.014728585, 0.004014967, -0.005634289, 0.003627701, -0.006979374, 0.007844058, -0.005496151, -0.005134517, -0.024206640, 0.002403422, -0.007161397, -0.021246213, -0.002974647, -0.011214121, 0.031987578, -0.000566248, -0.010419896, -0.018789174, -0.018704580, 0.004690284, -0.008153328, 0.011072702, 0.006162785, -0.012212865, 0.002779030, 0.002261735, -0.000192435, 0.004217742, 0.007131324, 0.000043239, 0.014893522, 0.010336963, 0.000605164, 0.001013077, 0.009966799, 0.002824312, -0.007757471, -0.004860871, 0.007089373, -0.001428124, 0.008295100, 0.000627230, -0.005279011, 0.002194428, -0.001367777, -0.006262330, -0.015959719, 0.006870104, -0.020693786, -0.001329459, 0.011663705, 0.028065473, 0.007343989, -0.010564928, -0.004670789, 0.006682413, 0.015654502, -0.001580681, -0.005249769, -0.003546431, -0.009268406, 0.003457851, 0.001432080, 0.002427541, -0.009269453, -0.001423884, 0.007190864, 0.014774772, 0.003450909, 0.002136526, -0.006415059, -0.004241114, -0.009801025, -0.011113523, 0.014467380, -0.013425032, -0.001572154, 0.002127298, 0.007270772, -0.010652590, -0.010249143, 0.013219113, 0.007813324, 0.010018719, 0.007854663, 0.007332985, 0.011242635, 0.004307105, -0.008423822, -0.016435912, 0.004335902, 0.007706432, 0.003209194, -0.004279637, 0.005244300, -0.005892336, -0.006927768, 0.020507658, -0.009120979, 0.011882978, 0.009520948, 0.007684256, 0.002848975, -0.011300657, 0.008435367, 0.017094446, 0.007559562, -0.021493053, -0.005635269, 0.013432230, 0.003896695, 0.022876514, -0.010929269, -0.007442050, 0.009218860, 0.016755139, 0.006527351, 0.005289213, -0.004597875, 0.005257723, -0.009589308, -0.004202674, -0.008315039, -0.005907497, -0.000365528, 0.010311252, 0.001416210, -0.014429843, 0.013166432, -0.015036394, -0.012530252, -0.008559088, -0.006206571, 0.008077389, -0.000681088, 0.000153285, 0.004095952, -0.003132057, -0.008814152, -0.000080660, 0.006993934, 0.006476277, -0.003496323, 0.005389944, 0.008471246, 0.002129956, 0.003812307, -0.001948719, -0.003832689, 0.018451557, 0.014709436, -0.027066240, -0.006409961, -0.006461293, 0.001104668, -0.011709932, 0.006278617, 0.006558796, -0.019866586, -0.008457734, -0.001074534, -0.001443746, -0.006713958, -0.001165800, -0.001680058, 0.002958521, -0.003010026, 0.002114741, 0.008640223, -0.011980764, -0.012909137, 0.009466417, -0.004691998, 0.000025011, 0.012169324, -0.008563354, 0.008047841, -0.004258128, 0.002825120, -0.015130227, 0.009133440, -0.008844793, 0.022437811, -0.005572386, 0.003054652, 0.001514978, 0.012697529, 0.015399026, -0.010874966, 0.016403116, -0.005618023, 0.008766655, -0.000133904, 0.003959703, 0.004007449, -0.007329280, -0.009746153, -0.002732956, -0.013114901, 0.002561944, -0.002038560, 0.002129762, -0.007904068, 0.000863437, -0.003745803, 0.009222542, -0.003305725, -0.002337512, 0.000446057, -0.006393495, 0.001136999, 0.004144029, -0.015839137, -0.012973485, -0.006614368, 0.010073688, 0.006694879, 0.011579366, -0.005486410, 0.001620317, -0.003291205, -0.001205770, 0.007949892, -0.001669232, 0.003201435, -0.006871265, 0.012735304, 0.011780016, -0.009026113, -0.004828367, -0.001943023, -0.002339500, 0.002196430, -0.012650815, -0.016739422, -0.007269641, -0.010408859, 0.003381654, 0.015194711, 0.009196307, 0.005667736, 0.003650409, -0.003079967, -0.022496849, 0.002964990, -0.004693263, 0.002764655, -0.001654842, -0.011408766, -0.004382920, -0.010845177, -0.001128638, -0.009439069, 0.007873737, 0.010155650, -0.016020915, 0.006779667, 0.014525172, 0.003760662, -0.011071045, -0.005000027, -0.014954178, -0.003686487, -0.020370215, -0.009291902, -0.000421962, -0.017023554, -0.001975410, -0.006313880, 0.007150094, -0.004855729, -0.004741149, -0.003655335, -0.013172965, 0.002634670, -0.015245805, -0.011918253, 0.001627538, -0.004656559, 0.004064187, 0.007823560, 0.006345305, -0.016103607, 0.003462632, -0.003191342, -0.003479891, 0.011379755, -0.010522724, -0.008349341, 0.006466351, -0.004344257, 0.023326101, 0.001009940, -0.009976427, 0.007657084, 0.006867555, -0.006357407, 0.012190973, -0.015298730, -0.011540774, 0.012309773, 0.007136529, 0.005978799, 0.006767252, 0.005728622, -0.016416414, -0.007426905, -0.005854666, -0.008425172, 0.001821524, -0.003975816, -0.000050249, -0.005777083, -0.010646931, 0.004080403, 0.013012397, -0.010061609, -0.012751914, -0.002694638, 0.006266743, -0.001570513, 0.007680803, -0.004452497, 0.013553425, 0.008112706, 0.000640344, -0.004628388, -0.013255439, 0.024708452, -0.002201738, -0.002429925, -0.005774884, -0.001919460, 0.011644072, 0.004153046, -0.004492504, 0.001002397, -0.003208184, -0.012272494, -0.000756488, -0.004871940, 0.002379775, 0.000302097, -0.002498818, -0.000847624, 0.005317523, 0.004231884, -0.002187761, -0.003571177, 0.016186910, -0.000494874, 0.007374700, 0.017374417, -0.017917527, -0.007509385, 0.003180825, 0.009069653, 0.015130188, -0.015730785, -0.023361061, -0.015332899, 0.004948576, 0.001003767, 0.009196657, -0.013649282, 0.001411622, 0.003537886, -0.017552750, 0.011145272, 0.011263631, -0.003614236, 0.001523338, -0.014966565, 0.012425003, 0.014051487, 0.010360212, 0.007594722, -0.015063767, -0.015426725, 0.011992439, -0.011406257, -0.012487101, -0.005437268, 0.004468331, 0.015281967, -0.009659004, 0.005723732, -0.008159563, -0.013314971, -0.014148926, 0.005660162, -0.004454167, 0.003817685, -0.008109125, 0.015501433, 0.002900582, -0.008031531, -0.004148561, 0.003230570, -0.006548255, 0.001264945, 0.002689310, 0.020049239, -0.005774871, -0.006126958, 0.010924353, -0.002813173, -0.007168218, 0.000981213, -0.001982191, 0.000206086, -0.002978569, 0.010325713, -0.005808420, 0.011904676, 0.007021579, -0.008308567, 0.007556625, -0.022238294, 0.014060758, 0.013684917, -0.018900244, -0.003259852, -0.005065070, 0.005580510, 0.001142431, 0.006204046, 0.012382950, 0.030463701, 0.003282652, -0.000171541, -0.000102772, -0.008578762, 0.013515597, 0.010393735, -0.006883028, -0.002631765, 0.001324062, 0.010625090, 0.019609548, -0.004091480, -0.005732226, -0.002183674, -0.003195963, -0.008523473, -0.005021853, 0.008050828, 0.021062100, -0.031121165, -0.004561429, 0.007146973, -0.021020707, 0.002470506, 0.010594280, -0.011365573, 0.004266309, -0.002024998, 0.012652231, -0.006950249, 0.003307434, 0.009123031, 0.000200776, -0.007133848, -0.000076208, 0.008097876, -0.006443561, 0.031083796, 0.003146843, -0.005945353, -0.007841774, -0.002738270, -0.010532143, 0.000948196, -0.012003017, 0.009506806, 0.009557356, -0.008840610, -0.025511716, 0.014269454, 0.026375908, 0.000023294, 0.011743039, -0.012046201, 0.003423967, -0.006760829, -0.007826107, -0.002467361, 0.017237904, 0.016420227, 0.014351215, 0.007268865, 0.004905412, 0.000436751, -0.008762066, 0.020518456, 0.004920988, -0.005549355, -0.009079892, -0.005129845, 0.015283268, 0.015849505, -0.019644214, -0.001626808, 0.014711164, 0.006448908, 0.002570459, -0.010021026, 0.007230900, 0.001174409, 0.011334212, -0.010659910, 0.002817156, 0.002084107, 0.011757267, -0.009054522, 0.014902345, 0.004917628, 0.001037733, -0.011445996, -0.000240603, -0.018794075, 0.010001707, -0.003890852, -0.000207835, -0.008777067, -0.004001186, -0.018114597, -0.001754177, -0.009529397, -0.011826610, 0.018212488, 0.005003429, -0.015875589, -0.016089408, 0.018019408, -0.007828165, -0.004475147, 0.000198666, -0.010709423, -0.007477174, -0.015830200, 0.021355378, 0.001233924, 0.006092393, 0.005275654, -0.020718481, 0.008164852, -0.004421028, 0.012691307, -0.002323636, -0.012937146, -0.010831916, 0.002609015, -0.017832860, 0.019989027, 0.012719632, -0.000038300, -0.021816462, 0.009452937, 0.012522373, -0.017384743, -0.005034409, -0.004941623, 0.004287446, -0.005186053, -0.004392097, -0.003496903, -0.002685540, 0.011983600, -0.006039381, -0.013856050, 0.001662859, 0.013143335, 0.011459453, 0.006732149, -0.001459280, 0.000669632, 0.005137629, -0.023615379, 0.011734963, -0.013199999, -0.001837166, 0.007745674, -0.014238547, 0.000682460, -0.016686106, 0.016596016, -0.002680307, -0.004413362, 0.010958980, -0.008850543, 0.003651799, 0.004830098, 0.001219230, 0.004603160, 0.010747690, -0.021035085, 0.007079329, 0.003169661, 0.002113579, 0.000422358, 0.004691203, -0.016122775, -0.012746327, -0.008084984, -0.004949752, -0.003005414, -0.012213884, 0.013751538, 0.001183850, -0.016733345, -0.014083619, -0.002351895, 0.001841849, 0.000680399, 0.008487847, -0.003658025, -0.014059655, 0.007579805, 0.000410833, 0.002230341, 0.021074407, 0.009817238, -0.013490256, -0.006076279, 0.013413443, -0.003896524, -0.000680090, -0.002716473, 0.001811877, 0.013526858, 0.001968649, 0.004412417, -0.004065439, -0.006887925, 0.006373525, 0.008682715, 0.019071145, 0.008126711, 0.004539565, -0.000391724, -0.025471548, 0.001961182, -0.004199819, 0.009636574, -0.004345225, -0.002375893, 0.003739902, 0.011249776, -0.001208614, -0.002958094, -0.010052103, 0.002249932, -0.020863580, 0.005777353, 0.002494937, 0.001527197, 0.003052498, -0.013300058, 0.017532634, -0.004164638, -0.003092023, 0.011000965, -0.029180998, -0.004923998, 0.002995608, -0.003529651, 0.021276664, -0.001970165, -0.002462915, 0.004766288, -0.010694554, 0.020172266, 0.008467041, 0.010231621, -0.014242093, 0.004453825, 0.002255879, -0.004811233, -0.002677625, 0.011919546, -0.013693062, -0.002712108, 0.019178072, 0.009158888, 0.002344161, -0.003601478, -0.006821584, -0.013423112, -0.001460512, -0.022308370, -0.005846149, 0.000054628, -0.023361683, 0.009899865, -0.007530421, -0.004611784, 0.004791803, -0.003514089, 0.009732535, 0.005235708, -0.004404517, -0.008761607, 0.001063771, 0.011356832, 0.006502668, -0.016625423, -0.000255359, -0.001887906, -0.004783475, 0.001585593, 0.004403261, -0.001240994, -0.004861072, 0.022330157, 0.012425688, -0.001431235, 0.017567605, 0.004785631, 0.004791291, 0.013856799, 0.019377209, -0.011163905, -0.000576710, 0.009807241, 0.005740220, 0.028594464, 0.015181867, -0.001974987, 0.013394389, 0.001585994, 0.005850721, 0.012214036, 0.002451844, -0.006520260, 0.001443329, 0.007135740, 0.000076409, 0.006457373, -0.015319809, 0.005312734, 0.004376556, 0.007430824, 0.006745203, 0.013965437, 0.001787967, 0.001439287, 0.012791920, -0.004010794, -0.002918380, -0.002168458, -0.001446178, -0.017221509, -0.016257128, -0.013179658, -0.003554255, -0.006998854, -0.004008701, 0.010399893, 0.016440129, -0.004318538, -0.022743501, 0.010607813, 0.003114920, 0.012374326, 0.014197207, 0.004023711, -0.009051600, -0.015248658, 0.002374036, -0.007469784, -0.002188384, -0.003465251, -0.002590283, 0.000951902, 0.002520475, -0.004248647, 0.013059110, -0.018627916, 0.003001359, 0.004193059, -0.001435926, 0.022281243, -0.013490619, -0.003590930, 0.012030559, -0.000133112, -0.005703347, 0.006766560, 0.004536106, -0.002437886, 0.011758206, -0.007279247, 0.003582233, 0.004990875, -0.006265649, 0.020294480, -0.008935112, 0.008469059, 0.012281163, 0.011897855, 0.002352867, 0.025017053, 0.010080910, -0.001336421, 0.000275644, -0.004709713, -0.006879291, -0.002039599, 0.001644649, 0.004174280, -0.004389970, -0.001780853, 0.002580392, 0.003449975, 0.001592724, -0.008865627, 0.009099990, 0.013787901, -0.003601449, 0.005066393, -0.004854603, 0.005235599, -0.010126528, -0.001791294, 0.013623173, -0.004750665, -0.010597716, 0.015774205, -0.002338792, -0.015991224, -0.006319558, -0.005602560, -0.015536140, -0.013201844, -0.001700081, 0.000244407, 0.020200102, -0.014505157, 0.000073235, 0.010916044, -0.019125130, 0.007939726, -0.015473296, 0.028461171, 0.003193487, -0.007834201, -0.005109323, 0.008426049, 0.009404571, 0.008692057, -0.022517838, -0.006025161, -0.009636223, -0.004521270, -0.008251686, -0.001228244, -0.001554037, -0.013893601, -0.005560747, -0.007671721, -0.000158505, 0.002376035, 0.010306539, -0.008069291, -0.006491955, -0.021856792, -0.005665968, -0.013302464, -0.006080410, -0.013111508, 0.006991019, 0.001854835, -0.002341030, 0.007532233, 0.002332324, -0.019538857, 0.000875911, -0.010407140, -0.016903682, -0.003866874, 0.002485259, -0.002509969, -0.001951738, -0.008812739, 0.017124282, -0.008178373, 0.004143854, 0.001347014, 0.001053844, 0.011192949, -0.004388195, -0.003143213, -0.004910156, 0.000907839, 0.006174776, -0.007434638, 0.006941149, 0.003243862, 0.013481862, 0.007629564, 0.007647691, 0.006098217, 0.003625936, 0.007970562, 0.001357823, 0.004409104, -0.002377117, -0.007679529, 0.000231455, -0.013664708, 0.001803929, -0.004808022, 0.013813834, 0.005993523, -0.024633253, 0.001251037, -0.005317951, 0.008571089, 0.001958963, 0.002949381, 0.007117869, 0.013668809, 0.006412877, -0.003208931, -0.012608964, -0.010782080, 0.008046029, 0.006858098, 0.011507166, -0.007656492, 0.005497351, 0.011852292, 0.006477537, 0.007088631, -0.015249466, -0.014478927, 0.007623596, -0.006195188, -0.015368931, -0.008450102, -0.000848709, -0.001526207, 0.012969886, 0.004298094, 0.002417518, -0.005196517, -0.013041420, -0.008661769, -0.003036216, -0.018219722, 0.000547981, 0.017810212, 0.015390562, 0.008384197, 0.004833514, 0.002727492, -0.001604383, -0.009171965, -0.004725172, 0.001932701, -0.000457398, -0.004393941, 0.011687728, 0.005379009, -0.016531624, -0.003450615, 0.004739936, 0.004723141, 0.001535681, 0.007381191, 0.000425959, 0.012681190, -0.016744314, -0.000969124, 0.003149342, 0.006093443, 0.002382772, -0.005661380, -0.015120767, -0.002914802, 0.009682566, -0.010282212, -0.007900353, -0.006032996, 0.004257202, 0.003765851, 0.017457321, 0.001308531, -0.007238463, -0.003000742, 0.006485420, -0.005243544, 0.008151260, 0.003119657, -0.009057885, 0.008156264, 0.000869708, -0.006671272, -0.009844624, -0.013501490, 0.009023877, -0.000835542, -0.001627744, -0.003018640, 0.000989331, 0.022424677, 0.008605815, 0.003369078, -0.003001300, 0.006404306, 0.003812486, -0.006688572, 0.012619911, 0.023850419, 0.004761172, 0.006084948, -0.001125155, 0.002684992, -0.000226292, -0.001624022, 0.000505140, 0.006611621, -0.015551882, -0.003638567, 0.015294842, 0.020315180, -0.009222541, 0.005380800, -0.015065326, -0.007064001, 0.000425439, 0.000896199, -0.011814849, -0.011053313, 0.002757133, -0.002998631, 0.007668023, -0.004840470, -0.016876321, 0.016283069, 0.006681126, 0.017186258, -0.006777157, 0.016448319, 0.020114960, 0.001073826, -0.001772509, 0.000449411, 0.018755699, 0.003126062, -0.003400772, -0.004169230, -0.011108879, 0.010801398, -0.017042471, 0.002285436, -0.007563288, 0.013275491, 0.009158190, -0.012390105, -0.011237810, -0.002943509, 0.003598039, -0.014464055, -0.007712325, -0.004413800, -0.012452045, -0.003269823, -0.009573540, -0.000035216, 0.003652181, 0.005727608, -0.004556523, 0.005445534, 0.013423705, -0.000224508, 0.001982308, -0.003209387, -0.001332742, -0.012144239, -0.022385359, -0.013508890, -0.007951990, 0.009655923, 0.010082732, -0.024450120, 0.001182941, 0.007183101, -0.016034989, 0.014784537, 0.013923471, 0.001626565, -0.014297355, -0.006149561, 0.004192135, -0.014245229, -0.007408366, 0.004111156, -0.011169497, -0.009423699, -0.003916449, 0.007182828, -0.012602566, -0.005150668, 0.015409012, -0.004252653, -0.005466309, 0.021228218, -0.002554021, 0.005330625, -0.005056794, 0.007395706, 0.012200518, -0.007138135, -0.000651509, 0.014380158, -0.001027560, 0.012816798, -0.011403427, 0.014430131, -0.001523871, -0.003792258, 0.004885681, -0.011083492, -0.007405413, -0.003926271, -0.000300977, 0.001939222, -0.010900279, -0.006321567, -0.011543442, 0.002195472, -0.002761943, 0.011768833, 0.006953897, -0.028324813, -0.007652530, 0.005593058, -0.001207469, -0.003465872, -0.000143705, 0.004383611, 0.003346878, -0.013257550, 0.002740620, -0.021694681, -0.004611346, -0.010945429, 0.001527474, -0.004052674, 0.000013588, -0.000920902, 0.000895935, -0.016992539, -0.021560242, -0.009219223, -0.009110742, 0.009887962, 0.011114679, -0.000265921, -0.013941280, 0.004692217, -0.001188366, -0.003843192, -0.008330107, 0.019208917, 0.002754203, 0.005763722, 0.000738697, 0.002032732, -0.012007224, -0.010143242, 0.002499553, -0.006437861, 0.022497114, 0.011713088, 0.005468678, 0.009970145, 0.012075366, -0.002372895, 0.009541921, -0.008738578, 0.009810125, -0.018687740, -0.015378033, 0.004131417, -0.010112087, 0.022971980, -0.015128920, -0.010197784, 0.003350346, -0.032892875, 0.005194852, -0.009239634, -0.005865362, 0.005956661, 0.011309266, -0.012872126, -0.014328812, -0.012689092, -0.012760405, 0.001891596, -0.007159244, 0.013771380, -0.000621999, -0.000314102, -0.001578807, 0.006039659, 0.005171602, -0.019220104, -0.003954533, -0.000848121, 0.001628660, -0.011234338, 0.012623043, 0.003037244, -0.003199006, -0.014501645, -0.009725674, -0.009454427, -0.008750835, 0.008806122, 0.002572720, -0.000127295, -0.006847657, 0.005930887, -0.009829304, -0.007895893, -0.008380468, 0.020448096, 0.002625264, -0.006405075, -0.016656879, -0.011862224, -0.010204325, -0.004694670, -0.013030308, -0.005177751, 0.000877101, -0.001857053, 0.000915807, -0.001811779, -0.015956309, 0.007733525, -0.004761091, -0.013971035, -0.002686395, 0.004543052, -0.015354070, -0.010100868, 0.002015865, 0.000213125, 0.016920030, 0.000487380, 0.011064832, -0.013579127, -0.008347126, -0.006166770, -0.001958143, 0.007938197, -0.001523924, -0.008633501, 0.007216590, -0.006534281, -0.009274682, -0.002489398, 0.000432162, -0.000523855, 0.007409437, 0.022957163, 0.000445236, -0.000636751, 0.002197660, -0.005860400, -0.009309807, -0.007645557, -0.000948711, 0.005540601, -0.005453974, 0.008129304, 0.008717330, 0.004876130, 0.004390997, 0.013122900, 0.005181851, -0.014640327, 0.007320550, -0.011724348, -0.005762885, 0.004652361, -0.013336375, 0.016467655, -0.009263224, -0.015110363, -0.007999922, 0.004213552, -0.001287554, -0.000436281, -0.018053725, 0.010481439, -0.025116922, -0.008783421, 0.007687489, -0.005177304, -0.000565563, -0.008721129, 0.007476226, 0.006965169, -0.006285571, -0.000735405, -0.000261179, 0.000214214, -0.008994122, -0.006709300, 0.015053966, 0.016295245, -0.009555260, -0.004348876, 0.008329250, 0.002592369, -0.009483999, -0.006366612, 0.015604889, 0.009856242, -0.011094334, 0.000971022, 0.006725195, 0.000836637, -0.009976557, 0.001048189, 0.001685485, 0.011076822, -0.009642912, 0.030004373, -0.012299907, -0.008399452, -0.006024931, 0.021320505, 0.008568833, 0.010064670, 0.003937921, 0.000122330, -0.009366146, 0.005858727, -0.023077305, -0.002556512, 0.016344728, 0.005231269, -0.010072674, 0.019538406, -0.003865649, 0.008050179, 0.003562700, 0.003208306, -0.008457466, 0.000109596, 0.002718531, 0.011915936, 0.001563747, -0.011667857, -0.012594951, 0.002510584, -0.005972034, 0.006571820, 0.008231929, -0.016067751, 0.025950780, 0.011578659, -0.005143018, 0.003786968, 0.006159682, 0.028199727, 0.005287133, 0.009066178, -0.012895141, -0.007333282, -0.009843702, 0.009693461, -0.002048018, -0.005792671, 0.004301848, 0.007696962, -0.005283603, -0.016143279, -0.007218237, 0.007488747, -0.001852814, 0.018975146, 0.007575525, -0.014955312, -0.000609557, 0.002460873, -0.000024491, -0.004732116, -0.018326601, -0.013483615, -0.002474126, -0.008758983, 0.005011713, -0.006919231, 0.006109028, -0.014455234, 0.015258799, 0.000480278, 0.004802328, -0.009040817, 0.015936319, 0.004292853, 0.007036251, 0.004511760, -0.004049588, -0.003950723, -0.000862146, -0.012483410, 0.004214893, 0.002877733, 0.002876257, 0.000030772, -0.000511200, 0.007124309, -0.010244863, -0.004310538, -0.008372976, 0.001158888, 0.006301319, -0.015746754, 0.001651332, -0.015565809, 0.001643346, -0.000464310, -0.022197992, 0.004572144, -0.002675709, -0.006831106, -0.005717967, 0.013009061, 0.029196829, 0.001856133, 0.013293868, -0.002677734, 0.008032124, 0.018534288, 0.014528224, -0.025811812, 0.010279056, -0.006602866, 0.007823325, 0.005786816, -0.011416856, 0.004149558, 0.000390786, -0.009527466, 0.003540514, 0.004967729, -0.001091330, -0.007084563, 0.001862582, 0.012704059, 0.007441288, 0.004471045, -0.015918054, -0.005599105, -0.005151300, -0.001237678, 0.003158622, 0.003170352, 0.009805584, 0.010535642, -0.011788152, 0.003093471, -0.007105600, 0.003671154, -0.004728550, 0.009169888, 0.009053578, 0.002300507, -0.001381369, 0.009526900, -0.004919302, -0.010906612, 0.005122752, 0.006941826, 0.003845926, 0.013678823, -0.019005628, 0.003377702, 0.006507399, 0.007844545, -0.003295709, -0.015408657, -0.005124582, 0.001230104, -0.013832248, -0.004339447, 0.006209489, -0.007249442, -0.018755658, 0.012156960, 0.008396622, 0.009308049, 0.010074586, 0.006375186, 0.000097981, -0.014084933, -0.004396616, 0.005893067, -0.021758530, 0.004689632, -0.022860045, 0.001459000, 0.003249095, 0.000359341, -0.005360033, 0.010419207, 0.014258317, -0.014510602, -0.023989500, 0.004472335, 0.004930925, -0.007661121, 0.008115770, 0.001128495, -0.009231837, -0.006660517, -0.009435991, -0.005336294, -0.008834611, 0.002391555, 0.004020222, 0.006400136, -0.011573439, -0.001762544, -0.006302557, 0.013407359, 0.004921316, -0.015764851, -0.021674676, 0.011595799, -0.013373034, 0.009608908, 0.002184650, -0.011458708, -0.006968452, 0.002874642, -0.005088660, -0.001020542, 0.001949756, 0.011046839, -0.019665232, -0.000190172, 0.004381524, -0.005535046, -0.008862041, -0.004863477, -0.006019929, 0.005407245, 0.016135583, -0.000652409, -0.002934387, -0.009588841, 0.001186023, 0.009601750, -0.004674704, 0.001439871, 0.005328611, 0.010377272, -0.007733252, -0.008330264, 0.003581638, 0.001601480, 0.006210614, 0.015133634, -0.010582856, -0.023551783, 0.008394106, 0.009636548, 0.003070461, 0.009929025, 0.000062009, -0.009082964, -0.004465148, -0.006034717, -0.007657352, 0.010099651, 0.014048834, -0.014212457, -0.014168330, -0.002388142, 0.001027314, -0.016518245, 0.002901715, 0.014476351, 0.010891714, -0.018917236, -0.004594071, 0.002817056, -0.005326423, 0.005416233, 0.001016206, 0.000114003, -0.011142983, -0.003200630, -0.008482352, -0.005629715, -0.002155074, 0.004141925, 0.001101105, -0.021486204, 0.009186553, 0.002557757, -0.016838733, -0.009056120, -0.019453006, -0.007988355, 0.015252630, -0.002123875, 0.006204514, -0.011943989, 0.012919603, -0.004406715, 0.003433018, 0.002281876, 0.013630658, -0.014349249, 0.005576911, -0.012512177, -0.013462855, -0.017410561, 0.005527023, 0.004351857, -0.018593749, 0.003897316, 0.006551009, 0.001257546, -0.014140186, -0.006039504, 0.000323809, 0.000458556, -0.010871424, 0.013187591, -0.001236278, 0.005072734, -0.002834055, 0.011479702, 0.015495105, 0.002340072, 0.009459740, 0.009842908, 0.005348915, 0.002855670, -0.003486662, -0.003768679, 0.001815360, -0.025332186, -0.021345871, 0.014615289, -0.011796610, -0.013147152, 0.015274252, 0.007846630, 0.000237495, -0.001573077, -0.009563156, 0.004614542, 0.007209553, -0.028648071, -0.020975361, 0.016917791, -0.011094295, -0.023578364, 0.004156089, -0.014198557, 0.003732372, 0.002080322, -0.000384357, -0.006438211, 0.010880053, 0.006260453, 0.003280200, 0.025987579, -0.016735101, -0.007516508, 0.003094345, -0.005502180, -0.003945639, -0.008632694, 0.011828521, 0.006120774, 0.017694170, 0.004589492, -0.001275649, -0.008899181, -0.010276375, -0.005142557, -0.015299196, -0.002813194, -0.001323376, -0.011737382, 0.000501322, -0.017311929, -0.003051204, 0.002993641, -0.014620213, 0.011544595, 0.001650401, -0.012101532, -0.011851179, 0.027482338, -0.007914239, -0.022117862, -0.004975993, 0.020166237, -0.009174949, 0.007314670, 0.008790017, -0.003528111, -0.011343506, -0.000029979, -0.003197948, -0.014159841, 0.011417233, 0.000093214, 0.009428726, -0.006709384, 0.003447401, -0.000164215, 0.009202883, 0.011327838, -0.004467471, 0.002702094, 0.001136103, -0.004427598, 0.005252547, 0.000492780, -0.014046503, 0.001741433, -0.001430906, 0.014529392, -0.007929971, -0.004828260, -0.005433301, -0.002961675, 0.020132992, -0.009534708, 0.012992900, 0.006488146, -0.001133413, 0.007289562, -0.015817845, -0.003376026, -0.006856279, -0.004335213, -0.001758855, -0.001630405, -0.005226361, -0.002087930, 0.014465885, -0.007235845, 0.015198905, 0.007659849, -0.006318189, -0.010339482, -0.003656224, 0.005106720, 0.000121968, 0.008654913, 0.008983821, -0.004292461, 0.010095370, -0.005731099, -0.013785754, -0.003403503, 0.020120131, 0.011707503, 0.004399790, -0.017287105, 0.012402030, -0.019446757, 0.012236178, 0.000727625, 0.003039579, -0.010509897, -0.015300247, -0.002610655, -0.002750561, -0.006754197, -0.017382953, 0.009208886, 0.005553256, -0.013139225, -0.009775395, -0.025533140, -0.000744750, 0.004202277, 0.010742981, -0.011081793, -0.017263897, -0.009361385, -0.007764823, 0.001085911, -0.023682544, -0.006792757, 0.002157621, 0.021325922, 0.004795899, -0.003347154, -0.011361582, -0.000282566, 0.001625083, -0.003275067, 0.005738484, -0.002161027, 0.011162563, 0.000802365, -0.007589729, 0.004250264, -0.005065228, 0.008438585, 0.004414990, 0.007421666, -0.007464107, -0.005765503, -0.006165664, 0.006841115, 0.011181101, 0.022274451, 0.020193495, -0.014729442, 0.004864417, 0.002397146, 0.001121435, 0.013899558, 0.000704687, -0.002337858, 0.007015392, 0.009286531, -0.003532272, -0.010225025, 0.003249420, -0.001796875, 0.002535614, -0.004623851, 0.011943012, -0.018825902, 0.006461749, 0.013035212, 0.001573261, 0.000014228, -0.000276294, -0.003909969, 0.001934346, -0.000890943, -0.007692007, -0.014255418, -0.008884666, -0.009807370, 0.007211190, -0.000255031, -0.001286910, 0.003622308, 0.001886870, 0.006659453, 0.007085437, 0.013370644, 0.022282690, 0.002126445, 0.004335922, -0.002985482, 0.000015279, 0.006995747, 0.020354675, -0.010230648, 0.003269346, -0.008173055, -0.005698561, -0.007858143, -0.007162135, 0.002556314, -0.018196441, 0.009917816, -0.002046029, 0.026280191, -0.004575015, -0.002448974, -0.003093440, 0.012085720, 0.012266167, -0.002100016, 0.010734540, -0.011569314, 0.003008819, 0.017933721, -0.017470183, -0.001816888, 0.000260576, 0.006925041, 0.000247816, -0.009357206, 0.003562744, 0.009947951, -0.009066011, -0.006944831, 0.002772943, 0.001124911, 0.003265923, 0.000144353, -0.009428364, -0.011482694, 0.004461725, 0.010906105, 0.002406100, -0.013788949, -0.020851905, -0.001124345, -0.003976162, 0.007406020, 0.012115850, 0.003562487, 0.000559395, -0.023419451, -0.002607515, 0.004371758, -0.011722603, 0.001470109, 0.004150189, 0.004131754, -0.011864181, -0.006333408, 0.000527658, 0.019232225, -0.006297325, 0.004619537, -0.004459319, -0.012410926, 0.006770031, -0.003887179, 0.020965552, 0.006932817, -0.003727373, 0.006952336, -0.008837029, 0.010023136, -0.010520511, -0.006888911, 0.003432196, 0.009479811, 0.006438353, -0.000154485, 0.013356077, 0.030258020, -0.006558921, -0.001442345, 0.003356786, 0.001405894, 